{"learner":{"attributes":{},"feature_names":["airline","origin","destination","distance","day_of_week","month","departure_hour","temperature","wind_speed","precipitation","visibility","snow"],"feature_types":["int","int","int","float","int","int","int","float","float","float","float","int"],"gradient_booster":{"model":{"cats":{"enc":[],"feature_segments":[],"sorted_idx":[]},"gbtree_model_param":{"num_parallel_tree":"1","num_trees":"100"},"iteration_indptr":[0,1,2,3,4,5,6,7,8,9,10,11,12,13,14,15,16,17,18,19,20,21,22,23,24,25,26,27,28,29,30,31,32,33,34,35,36,37,38,39,40,41,42,43,44,45,46,47,48,49,50,51,52,53,54,55,56,57,58,59,60,61,62,63,64,65,66,67,68,69,70,71,72,73,74,75,76,77,78,79,80,81,82,83,84,85,86,87,88,89,90,91,92,93,94,95,96,97,98,99,100],"tree_info":[0,0,0,0,0,0,0,0,0,0,0,0,0,0,0,0,0,0,0,0,0,0,0,0,0,0,0,0,0,0,0,0,0,0,0,0,0,0,0,0,0,0,0,0,0,0,0,0,0,0,0,0,0,0,0,0,0,0,0,0,0,0,0,0,0,0,0,0,0,0,0,0,0,0,0,0,0,0,0,0,0,0,0,0,0,0,0,0,0,0,0,0,0,0,0,0,0,0,0,0],"trees":[{"base_weights":[-3.3220826E-3,-5.2754074E-1,2.9336065E-1,-7.6709765E-1,-2.7017173E-1,1.2853156E-1,6.0280603E-1,-9.4646055E-1,-6.494891E-1,-4.0614873E-1,-1.0344728E-1,-3.712049E-2,3.438707E-1,3.4028822E-1,7.516124E-1,-7.547117E-1,-1.0893437E0,5.9954654E-2,-6.70787E-1,-3.4837842E-1,-7.6573795E-1,1.1519944E-1,-1.9817653E-1,-3.0310857E-1,7.3906824E-2,1.9473578E-1,5.672364E-1,4.278176E-1,2.3380734E-2,8.702588E-1,5.258198E-1,-6.064606E-1,-1.1653826E0,-9.895472E-1,-1.5305748E0,-1.5789475E-1,2.845565E-1,-7.623382E-1,-4.822714E-1,-3.6820346E-1,4.93915E-1,-1.0939586E0,-1.4505516E-1,-4.2827156E-1,2.2961716E-1,-2.9313433E-1,1.5365903E-2,-4.5232728E-1,-6.9201E-2,1.7425361E-1,-1.7102428E-1,-1.9000736E-1,2.3628594E-1,6.297328E-1,-4.3195713E-2,5.25201E-1,1.4197567E-1,-3.14977E-1,2.8437608E-1,7.4328697E-1,1.0967522E0,-9.376853E-1,5.5424803E-1,-8.9551196E-2,-3.704485E-2,9.724962E-2,-1.2438176E-1,7.9312466E-2,-1.0060649E-1,1.176487E-1,-1.6307333E-1,1.0309869E-1,-6.60609E-2,-6.473794E-2,-1.0092167E-1,-3.0423919E-2,-7.743102E-2,-4.2583805E-2,-1.1037332E-2,1.4400136E-1,-1.4556601E-2,1.3536687E-2,-1.3308387E-1,4.9467925E-3,-1.6666667E-1,9.2653856E-2,-5.9693784E-2,3.0878862E-2,-3.4705766E-2,-2.2231312E-2,-1.10133864E-1,-6.6770814E-2,2.220366E-2,4.6363384E-2,-5.1672507E-2,1.1652239E-2,-8.403119E-2,-4.368223E-3,3.1680983E-2,-7.26911E-3,-5.672548E-2,9.2825264E-2,-3.918819E-2,2.7590638E-2,-1.9437773E-2,7.1442395E-2,2.1195408E-2,1.22403674E-1,-3.566846E-2,5.575652E-2,-3.773311E-2,1.3533638E-1,8.769578E-3,-2.1146666E-2,-1.6666667E-1,1.5851957E-1,1.9266246E-2,5.5665474E-2,8.7249085E-2,7.743408E-2,1.2506947E-1,-1.6521738E-1,-1.16254045E-2,6.982142E-2,2.6230857E-2],"categories":[],"categories_nodes":[],"categories_segments":[],"categories_sizes":[],"default_left":[0,0,0,0,0,0,0,0,0,0,0,0,0,0,0,0,0,0,0,0,0,0,0,0,0,0,0,0,0,0,0,0,0,0,0,0,0,0,0,0,0,0,0,0,0,0,0,0,0,0,0,0,0,0,0,0,0,0,0,0,0,0,0,0,0,0,0,0,0,0,0,0,0,0,0,0,0,0,0,0,0,0,0,0,0,0,0,0,0,0,0,0,0,0,0,0,0,0,0,0,0,0,0,0,0,0,0,0,0,0,0,0,0,0,0,0,0,0,0,0,0,0,0,0,0],"id":0,"left_children":[1,3,5,7,9,11,13,15,17,19,21,23,25,27,29,31,33,35,37,39,41,43,45,47,49,51,53,55,57,59,61,63,65,67,69,-1,71,73,75,77,79,81,83,85,87,89,91,93,95,97,99,101,103,105,107,109,111,113,115,117,119,121,123,-1,-1,-1,-1,-1,-1,-1,-1,-1,-1,-1,-1,-1,-1,-1,-1,-1,-1,-1,-1,-1,-1,-1,-1,-1,-1,-1,-1,-1,-1,-1,-1,-1,-1,-1,-1,-1,-1,-1,-1,-1,-1,-1,-1,-1,-1,-1,-1,-1,-1,-1,-1,-1,-1,-1,-1,-1,-1,-1,-1,-1,-1],"loss_changes":[1.7531385E3,2.5096838E2,3.6707922E2,4.3882812E1,4.4517E1,1.6759384E2,9.74613E1,2.2005615E1,1.9338623E1,2.2214981E1,1.8337894E1,7.846516E1,6.7935684E1,2.5143028E1,4.2289246E1,2.1151306E1,1.9409302E1,1.4489915E1,2.103479E1,1.5782639E1,3.0188736E1,1.6759129E1,1.2522419E1,2.727784E1,4.610823E1,1.9650513E1,3.1207092E1,1.9702484E1,1.7513678E1,2.9222473E1,2.3492752E1,1.780635E1,1.6995995E1,1.2292358E1,2.518782E1,0E0,2.494566E1,2.298758E1,2.0982185E1,1.3525322E1,1.3466108E1,2.85102E1,1.5674915E1,1.1280976E1,1.02422E1,2.4216545E1,2.7107357E1,2.840564E1,4.3909042E1,4.134731E1,2.1207592E1,2.7474075E1,1.8947971E1,2.60831E1,3.0962471E1,1.5678772E1,1.184287E1,1.1735266E1,1.304609E1,1.5728027E1,1.7549438E1,6.201025E0,2.2608475E1,0E0,0E0,0E0,0E0,0E0,0E0,0E0,0E0,0E0,0E0,0E0,0E0,0E0,0E0,0E0,0E0,0E0,0E0,0E0,0E0,0E0,0E0,0E0,0E0,0E0,0E0,0E0,0E0,0E0,0E0,0E0,0E0,0E0,0E0,0E0,0E0,0E0,0E0,0E0,0E0,0E0,0E0,0E0,0E0,0E0,0E0,0E0,0E0,0E0,0E0,0E0,0E0,0E0,0E0,0E0,0E0,0E0,0E0,0E0,0E0,0E0,0E0],"parents":[2147483647,0,0,1,1,2,2,3,3,4,4,5,5,6,6,7,7,8,8,9,9,10,10,11,11,12,12,13,13,14,14,15,15,16,16,17,17,18,18,19,19,20,20,21,21,22,22,23,23,24,24,25,25,26,26,27,27,28,28,29,29,30,30,31,31,32,32,33,33,34,34,36,36,37,37,38,38,39,39,40,40,41,41,42,42,43,43,44,44,45,45,46,46,47,47,48,48,49,49,50,50,51,51,52,52,53,53,54,54,55,55,56,56,57,57,58,58,59,59,60,60,61,61,62,62],"right_children":[2,4,6,8,10,12,14,16,18,20,22,24,26,28,30,32,34,36,38,40,42,44,46,48,50,52,54,56,58,60,62,64,66,68,70,-1,72,74,76,78,80,82,84,86,88,90,92,94,96,98,100,102,104,106,108,110,112,114,116,118,120,122,124,-1,-1,-1,-1,-1,-1,-1,-1,-1,-1,-1,-1,-1,-1,-1,-1,-1,-1,-1,-1,-1,-1,-1,-1,-1,-1,-1,-1,-1,-1,-1,-1,-1,-1,-1,-1,-1,-1,-1,-1,-1,-1,-1,-1,-1,-1,-1,-1,-1,-1,-1,-1,-1,-1,-1,-1,-1,-1,-1,-1,-1,-1],"split_conditions":[1.2E1,9E0,1.5E1,-3.7294623E-1,1.4E1,-1.5899175E-1,1.6E1,-8.450045E-1,4E0,1.2E1,-6.327135E-1,1.5E1,1.8E1,2.6E2,1.6E1,6.237414E-1,8.841965E-1,-9.5261616E-1,8E0,3.46E2,6.7182815E-1,2E0,2.6042694E-1,3.2366872E-1,1.3E1,-1.2398356E0,2.578267E0,9E0,-6.0504768E-2,2E1,-1.4810166E0,1.1E1,1.7E1,-8.348382E-1,1E0,-1.5789475E-1,-1.2850095E-1,5.838996E-1,5.8822002E-2,8.362145E-1,-6.327135E-1,-1.0504687E0,9.836433E-1,2.4E1,1.0985045E0,8.7225705E-2,-3.6424983E-1,2E0,1.4719629E0,6E0,1E1,-3.930516E0,1.4E1,7.645858E-1,-1.5767459E0,9.393833E-1,-1.1183908E0,-2.3200797E-1,-3.1240017E0,-4.426236E-1,5E0,2E1,8E0,-8.9551196E-2,-3.704485E-2,9.724962E-2,-1.2438176E-1,7.9312466E-2,-1.0060649E-1,1.176487E-1,-1.6307333E-1,1.0309869E-1,-6.60609E-2,-6.473794E-2,-1.0092167E-1,-3.0423919E-2,-7.743102E-2,-4.2583805E-2,-1.1037332E-2,1.4400136E-1,-1.4556601E-2,1.3536687E-2,-1.3308387E-1,4.9467925E-3,-1.6666667E-1,9.2653856E-2,-5.9693784E-2,3.0878862E-2,-3.4705766E-2,-2.2231312E-2,-1.10133864E-1,-6.6770814E-2,2.220366E-2,4.6363384E-2,-5.1672507E-2,1.1652239E-2,-8.403119E-2,-4.368223E-3,3.1680983E-2,-7.26911E-3,-5.672548E-2,9.2825264E-2,-3.918819E-2,2.7590638E-2,-1.9437773E-2,7.1442395E-2,2.1195408E-2,1.22403674E-1,-3.566846E-2,5.575652E-2,-3.773311E-2,1.3533638E-1,8.769578E-3,-2.1146666E-2,-1.6666667E-1,1.5851957E-1,1.9266246E-2,5.5665474E-2,8.7249085E-2,7.743408E-2,1.2506947E-1,-1.6521738E-1,-1.16254045E-2,6.982142E-2,2.6230857E-2],"split_indices":[6,6,0,3,0,3,6,3,6,0,9,6,6,2,0,10,8,8,6,2,10,5,3,8,0,10,3,5,3,6,8,0,2,9,0,0,8,10,8,10,9,3,8,2,8,3,9,0,8,5,5,10,0,10,10,10,3,3,10,9,5,6,5,0,0,0,0,0,0,0,0,0,0,0,0,0,0,0,0,0,0,0,0,0,0,0,0,0,0,0,0,0,0,0,0,0,0,0,0,0,0,0,0,0,0,0,0,0,0,0,0,0,0,0,0,0,0,0,0,0,0,0,0,0,0],"split_type":[0,0,0,0,0,0,0,0,0,0,0,0,0,0,0,0,0,0,0,0,0,0,0,0,0,0,0,0,0,0,0,0,0,0,0,0,0,0,0,0,0,0,0,0,0,0,0,0,0,0,0,0,0,0,0,0,0,0,0,0,0,0,0,0,0,0,0,0,0,0,0,0,0,0,0,0,0,0,0,0,0,0,0,0,0,0,0,0,0,0,0,0,0,0,0,0,0,0,0,0,0,0,0,0,0,0,0,0,0,0,0,0,0,0,0,0,0,0,0,0,0,0,0,0,0],"sum_hessian":[1.1270278E4,4.0729204E3,7.1973574E3,2.1084304E3,1.9644901E3,4.696915E3,2.5004421E3,8.3220306E2,1.2762274E3,1.0812274E3,8.832627E2,2.6552002E3,2.0417148E3,9.0578394E2,1.5946583E3,3.5802124E2,4.7418185E2,3.714344E1,1.239084E3,9.332617E2,1.4796567E2,2.6693286E2,6.1632983E2,7.814208E2,1.8737795E3,1.2254133E3,8.1630164E2,7.0947736E2,1.9630658E2,1.043487E3,5.5117126E2,2.648778E2,9.314344E1,3.893601E2,8.482172E1,3.75E0,3.339344E1,8.319899E2,4.0709396E2,9.123506E2,2.0911114E1,9.628637E1,5.16793E1,4.594697E1,2.2098589E2,4.2636267E2,1.899672E2,4.7650558E2,3.049152E2,1.3294148E3,5.443647E2,1.1909092E2,1.1063224E3,7.4046124E2,7.584041E1,5.285637E2,1.8091365E2,8.539394E1,1.10912636E2,6.71389E2,3.7209805E2,9.89293E0,5.412784E2,1.1780455E2,1.4707324E2,2.8929298E0,9.025051E1,3.1429298E0,3.862172E2,2.6429298E0,8.217879E1,1.8607578E1,1.478586E1,5.7013086E2,2.618591E2,2.5418184E2,1.5291212E2,7.451339E2,1.6721669E2,7.928789E0,1.2982325E1,1.5625255E1,8.066112E1,4.66793E1,5E0,4.5893946E0,4.135758E1,1.947177E2,2.6268185E1,3.9318387E2,3.317879E1,4.360758E1,1.4635962E2,3.0893438E1,4.4561215E2,2.4641467E2,5.8500507E1,5.259899E2,8.0342487E2,4.3707782E2,1.0728688E2,1.7661114E1,1.0142981E2,1.0134461E3,9.2876274E1,6.150662E2,1.25394966E2,1.4464649E1,6.1375763E1,5.1063492E2,1.792879E1,6.7323246E0,1.7418134E2,8.039394E1,5E0,6.2323246E0,1.0468031E2,2.768268E2,3.945622E2,1.22199005E2,2.4989903E2,4.75E0,5.14293E0,3.6157883E2,1.7969951E2],"tree_param":{"num_deleted":"0","num_feature":"12","num_nodes":"125","size_leaf_vector":"1"}},{"base_weights":[-4.620415E-3,-1.0754076E-1,2.0372728E-1,-2.0665339E-1,1.6730055E-2,2.6576436E-1,1.8772658E-2,-2.4773368E-1,1.0028646E-1,-7.584988E-2,1.910201E-1,1.0309559E-1,3.5095555E-1,-1.7340736E-1,3.280429E-2,-6.325682E-3,-2.9987094E-1,3.01287E-1,-1.8468931E-1,4.373797E-2,-2.7359462E-1,4.1855308E-1,-1.7119792E-1,1.4470975E-1,-6.9078034E-1,1.6534798E-1,4.1570473E-1,1.8668193E-1,-1.1101966E-1,5.122009E-1,-9.035628E-2,-4.5509908E-1,-2.3934303E-1,4.8638788E-1,8.322846E-2,-2.8625235E-1,7.9682606E-1,2.7508798E-1,-3.0175913E-2,2.9485357E-1,-3.6270303E-1,5.875101E-1,2.7302316E-1,-2.4615796E-1,3.9550364E-1,-5.9757374E-2,2.9651418E-1,-1.604398E0,-1.9064227E-1,-2.8570667E-1,2.5011066E-1,5.217556E-1,2.1072577E-1,3.7488356E-1,-1.7550589E-1,6.9709592E-3,-5.622023E-1,-1.0657766E-1,6.428959E-2,-2.6867373E-2,4.153378E-3,-3.160328E-2,-7.227083E-2,-1.221253E-2,-3.488807E-2,-5.348871E-2,5.875954E-2,-1.5248632E-1,1.3736329E-2,6.530568E-3,-5.1994402E-2,1.2972781E-1,-3.18438E-2,-3.5262007E-2,3.504885E-2,-8.8403985E-2,-1.0651102E-3,-4.637763E-2,3.6980506E-2,-3.900371E-2,5.3267922E-2,3.388825E-2,7.604603E-2,8.003498E-2,1.7833764E-2,8.4216684E-2,-2.8590173E-2,5.5074822E-2,-1.5185307E-1,-7.107072E-2,1.75406E-3,1.6520044E-2,5.3453792E-2,-1.867546E-1,2.8022824E-2,1.7920086E-2,-1.689598E-1,-1.3843033E-3,-1.2939434E-1,6.198897E-2,1.5459417E-2,-1.4871962E-1,5.301497E-2,3.5508845E-2,-4.3269556E-2,1.0934162E-2,7.287162E-2,-1.0572076E-1,-6.07706E-3,2.4472507E-2,-1.3675439E-2,-1.6382502E-1,-3.279556E-2],"categories":[],"categories_nodes":[],"categories_segments":[],"categories_sizes":[],"default_left":[0,0,0,0,0,0,0,0,0,0,0,0,0,0,0,0,0,0,0,0,0,0,0,0,0,0,0,0,0,0,0,0,0,0,0,0,0,0,0,0,0,0,0,0,0,0,0,0,0,0,0,0,0,0,0,0,0,0,0,0,0,0,0,0,0,0,0,0,0,0,0,0,0,0,0,0,0,0,0,0,0,0,0,0,0,0,0,0,0,0,0,0,0,0,0,0,0,0,0,0,0,0,0,0,0,0,0,0,0,0,0,0,0],"id":1,"left_children":[1,3,5,7,9,11,13,15,17,19,21,23,25,-1,27,29,31,33,35,37,39,41,43,45,47,49,51,53,55,57,59,61,63,65,67,69,71,73,75,77,79,81,83,85,87,89,91,93,95,97,99,101,103,105,107,109,111,-1,-1,-1,-1,-1,-1,-1,-1,-1,-1,-1,-1,-1,-1,-1,-1,-1,-1,-1,-1,-1,-1,-1,-1,-1,-1,-1,-1,-1,-1,-1,-1,-1,-1,-1,-1,-1,-1,-1,-1,-1,-1,-1,-1,-1,-1,-1,-1,-1,-1,-1,-1,-1,-1,-1,-1],"loss_changes":[2.4276425E2,9.333866E1,4.294658E1,5.318181E1,5.4281303E1,3.8808563E1,2.3208448E1,4.6799103E1,2.8600529E1,5.196981E1,9.62511E1,3.1975193E1,2.2034882E1,0E0,2.0709196E1,2.886725E1,2.8622437E1,1.1769852E1,2.0836403E1,2.3435389E1,4.2055153E1,1.7470451E1,1.925366E1,2.8499699E1,2.1732346E1,1.8321144E1,2.9516678E1,3.0875496E1,2.5759958E1,1.9739986E1,1.3418012E1,3.1656326E1,2.823285E1,1.6651031E1,1.2009467E1,1.548611E1,1.138057E1,1.582848E1,1.7315424E1,6.58403E0,1.7740395E1,1.3973022E1,1.9185085E1,1.749419E1,1.6604033E1,1.9727825E1,1.637714E1,8.918255E0,1.8210897E1,2.0807783E1,1.4115356E1,1.5923538E1,4.3473442E1,2.7896618E1,1.5639814E1,1.317257E1,2.4746412E1,0E0,0E0,0E0,0E0,0E0,0E0,0E0,0E0,0E0,0E0,0E0,0E0,0E0,0E0,0E0,0E0,0E0,0E0,0E0,0E0,0E0,0E0,0E0,0E0,0E0,0E0,0E0,0E0,0E0,0E0,0E0,0E0,0E0,0E0,0E0,0E0,0E0,0E0,0E0,0E0,0E0,0E0,0E0,0E0,0E0,0E0,0E0,0E0,0E0,0E0,0E0,0E0,0E0,0E0,0E0,0E0],"parents":[2147483647,0,0,1,1,2,2,3,3,4,4,5,5,6,6,7,7,8,8,9,9,10,10,11,11,12,12,14,14,15,15,16,16,17,17,18,18,19,19,20,20,21,21,22,22,23,23,24,24,25,25,26,26,27,27,28,28,29,29,30,30,31,31,32,32,33,33,34,34,35,35,36,36,37,37,38,38,39,39,40,40,41,41,42,42,43,43,44,44,45,45,46,46,47,47,48,48,49,49,50,50,51,51,52,52,53,53,54,54,55,55,56,56],"right_children":[2,4,6,8,10,12,14,16,18,20,22,24,26,-1,28,30,32,34,36,38,40,42,44,46,48,50,52,54,56,58,60,62,64,66,68,70,72,74,76,78,80,82,84,86,88,90,92,94,96,98,100,102,104,106,108,110,112,-1,-1,-1,-1,-1,-1,-1,-1,-1,-1,-1,-1,-1,-1,-1,-1,-1,-1,-1,-1,-1,-1,-1,-1,-1,-1,-1,-1,-1,-1,-1,-1,-1,-1,-1,-1,-1,-1,-1,-1,-1,-1,-1,-1,-1,-1,-1,-1,-1,-1,-1,-1,-1,-1,-1,-1],"split_conditions":[1.5E1,-1.5899175E-1,1.7E1,1.1343976E0,6E0,-4.6973515E-1,-2.1983306E0,3E0,1.75E2,3E0,1.2E1,-5.4784554E-1,4E0,-1.7340736E-1,-2.1123901E-1,5.4E1,5E0,-2.1123901E-1,-2.4389432E-1,1.9590099E-1,-7.408918E-2,-2.9913902E-1,1.4237952E0,3E0,-5.1558256E-1,-7.6972425E-1,9E0,3.877917E-1,3.7683704E-1,2E0,6E0,4E0,1.3E1,5E0,-1.3530525E0,-8.5349476E-1,-2.099333E-1,1E0,-8.1823003E-1,-1.2360497E0,2.2734005E0,-2.8892005E-2,3.1190008E-2,-1.9940491E0,2.5444643E0,-1.1258847E0,3.6299136E-2,1.6746823E0,5E0,1E0,-1.7642579E0,-8.2791436E-1,-1.9062137E-2,-6.520177E-2,-1.3222436E0,6.5151036E-2,5E0,-1.0657766E-1,6.428959E-2,-2.6867373E-2,4.153378E-3,-3.160328E-2,-7.227083E-2,-1.221253E-2,-3.488807E-2,-5.348871E-2,5.875954E-2,-1.5248632E-1,1.3736329E-2,6.530568E-3,-5.1994402E-2,1.2972781E-1,-3.18438E-2,-3.5262007E-2,3.504885E-2,-8.8403985E-2,-1.0651102E-3,-4.637763E-2,3.6980506E-2,-3.900371E-2,5.3267922E-2,3.388825E-2,7.604603E-2,8.003498E-2,1.7833764E-2,8.4216684E-2,-2.8590173E-2,5.5074822E-2,-1.5185307E-1,-7.107072E-2,1.75406E-3,1.6520044E-2,5.3453792E-2,-1.867546E-1,2.8022824E-2,1.7920086E-2,-1.689598E-1,-1.3843033E-3,-1.2939434E-1,6.198897E-2,1.5459417E-2,-1.4871962E-1,5.301497E-2,3.5508845E-2,-4.3269556E-2,1.0934162E-2,7.287162E-2,-1.0572076E-1,-6.07706E-3,2.4472507E-2,-1.3675439E-2,-1.6382502E-1,-3.279556E-2],"split_indices":[0,3,0,9,0,3,7,0,2,0,0,3,5,0,8,2,0,8,3,3,3,8,8,4,3,9,5,7,9,5,5,0,0,5,7,3,3,0,9,8,8,7,3,7,8,7,9,9,4,11,7,9,9,9,8,3,5,0,0,0,0,0,0,0,0,0,0,0,0,0,0,0,0,0,0,0,0,0,0,0,0,0,0,0,0,0,0,0,0,0,0,0,0,0,0,0,0,0,0,0,0,0,0,0,0,0,0,0,0,0,0,0,0],"split_type":[0,0,0,0,0,0,0,0,0,0,0,0,0,0,0,0,0,0,0,0,0,0,0,0,0,0,0,0,0,0,0,0,0,0,0,0,0,0,0,0,0,0,0,0,0,0,0,0,0,0,0,0,0,0,0,0,0,0,0,0,0,0,0,0,0,0,0,0,0,0,0,0,0,0,0,0,0,0,0,0,0,0,0,0,0,0,0,0,0,0,0,0,0,0,0,0,0,0,0,0,0,0,0,0,0,0,0,0,0,0,0,0,0],"sum_hessian":[1.131924E4,7.576873E3,3.7423672E3,4.214734E3,3.3621392E3,2.802067E3,9.403003E2,3.7173967E3,4.9733698E2,2.1961475E3,1.1659917E3,9.6384937E2,1.8382175E3,6.493889E0,9.338064E2,6.6045465E2,3.0569421E3,2.916041E2,2.057329E2,1.3690072E3,8.2714026E2,7.1604266E2,4.4994907E2,9.1661884E2,4.7230503E1,4.7633304E2,1.3618844E3,4.509915E2,4.8281494E2,9.1394196E1,5.690605E2,8.5576166E2,2.2011804E3,1.5705557E2,1.3454851E2,1.8708272E2,1.865017E1,3.3082022E2,1.0381869E3,1.1177654E2,7.153637E2,3.2994586E2,3.8609683E2,3.978848E2,5.206429E1,3.9082224E2,5.2579663E2,1.59274435E1,3.130306E1,7.497765E1,4.013554E2,8.9650854E2,4.653759E2,2.967552E2,1.542363E2,3.83507E2,9.930795E1,6.443414E0,8.495078E1,2.4150491E2,3.2755554E2,5.645616E2,2.9120007E2,1.0643354E3,1.136845E3,1.3774403E1,1.4328117E2,3.4971354E0,1.3105138E2,7.49903E1,1.12092415E2,1.2760813E1,5.889356E0,3.508248E1,2.9573773E2,2.2219076E1,1.0159679E3,9.5839405E0,1.02192604E2,6.947198E2,2.0643917E1,1.3657272E2,1.9337314E2,5.7638935E1,3.284579E2,1.330683E1,3.8457797E2,4.8817066E1,3.2472239E0,4.061304E1,3.502092E2,3.3994736E2,1.8584927E2,1.3983946E1,1.9434975E0,2.5814259E1,5.488802E0,5.9852577E1,1.5125079E1,8.126382E1,3.2009158E2,2.9973195E0,8.935112E2,3.80461E2,8.491487E1,1.7027634E2,1.2647884E2,1.681378E1,1.3742252E2,1.4422449E2,2.392825E2,1.6682167E1,8.2625786E1],"tree_param":{"num_deleted":"0","num_feature":"12","num_nodes":"113","size_leaf_vector":"1"}},{"base_weights":[1.019592E-2,-4.5374882E-1,2.7114618E-1,-6.7115176E-1,-2.2200672E-1,1.4441572E-1,5.1391727E-1,-8.421894E-1,-5.7681715E-1,-2.6524833E-1,2.1740606E-1,-3.7034202E-2,2.6569387E-1,2.6015207E-1,6.5694976E-1,-6.450949E-1,-1.031618E0,-3.7478188E-1,-6.8922997E-1,-1.9018745E-1,-5.202128E-1,3.8549548E-1,-6.2079674E-1,-1.8543728E-1,8.990941E-2,1.2898019E-1,4.566764E-1,6.766649E-4,3.5457548E-1,3.6733347E-1,7.4669707E-1,-2.40434E-1,-7.821811E-1,-5.1023734E-1,-1.1471308E0,-6.4258057E-1,-1.6344858E-2,-5.742837E-1,-9.375045E-1,-1.7438984E-1,-1.3603843E0,-3.0618674E-1,-9.2947584E-1,-9.831911E-2,6.38775E-1,6.02626E-1,-1.1710057E0,-4.7254777E-1,-6.365543E-2,1.9527914E-1,-1.8456082E-1,2.3156492E-1,-1.6371986E-1,4.7528675E-1,-7.9899913E-1,9.422719E-1,-8.475658E-2,4.157448E-1,-4.1933626E-2,-1.6466121E-1,3.9325595E-1,8.491355E-1,5.4534227E-1,8.372249E-2,-4.0491592E-2,-4.8046518E-2,-9.741684E-2,-2.5959168E-2,-1.446815E-1,-1.3245809E-1,-7.6322444E-2,-1.0696118E-2,-8.2680054E-2,1.5011089E-2,-2.885448E-2,-6.6763945E-2,-2.4638835E-2,-9.701E-2,5.359586E-2,-2.3845017E-2,-1.8095373E-3,-1.591373E-1,1.0669267E-1,-3.741428E-2,1.0055077E-1,-1.3818626E-1,-2.3580179E-2,-6.553833E-2,4.9063273E-2,8.908894E-2,-2.2679247E-2,1.14763275E-1,-1.2491542E-1,-1.5584895E-1,5.3769507E-2,-7.16153E-2,-6.59337E-3,4.1779842E-2,-1.1265203E-2,2.663207E-2,-1.5122737E-2,-4.0104132E-2,1.338491E-2,1.4019247E-4,5.1546942E-2,-7.0223436E-3,-1.0256914E-1,1.2164544E-3,5.1434796E-2,-1.7298877E-1,-7.230177E-3,-2.3181299E-2,1.4159782E-1,-1.4196426E-1,-1.3646287E-3,5.0785918E-2,3.4531474E-3,3.423972E-2,-7.5139664E-2,5.537197E-2,1.756703E-2,6.930686E-2,9.911605E-2,7.587332E-2,2.851708E-2],"categories":[],"categories_nodes":[],"categories_segments":[],"categories_sizes":[],"default_left":[0,0,0,0,0,0,0,0,0,0,0,0,0,0,0,0,0,0,0,0,0,0,0,0,0,0,0,0,0,0,0,0,0,0,0,0,0,0,0,0,0,0,0,0,0,0,0,0,0,0,0,0,0,0,0,0,0,0,0,0,0,0,0,0,0,0,0,0,0,0,0,0,0,0,0,0,0,0,0,0,0,0,0,0,0,0,0,0,0,0,0,0,0,0,0,0,0,0,0,0,0,0,0,0,0,0,0,0,0,0,0,0,0,0,0,0,0,0,0,0,0,0,0,0,0],"id":2,"left_children":[1,3,5,7,9,11,13,15,17,19,21,23,25,27,29,31,33,35,37,39,41,43,45,47,49,51,53,55,57,59,61,63,65,67,69,71,73,75,77,79,81,83,85,87,89,91,93,95,97,99,101,103,105,107,109,111,113,115,117,-1,119,121,123,-1,-1,-1,-1,-1,-1,-1,-1,-1,-1,-1,-1,-1,-1,-1,-1,-1,-1,-1,-1,-1,-1,-1,-1,-1,-1,-1,-1,-1,-1,-1,-1,-1,-1,-1,-1,-1,-1,-1,-1,-1,-1,-1,-1,-1,-1,-1,-1,-1,-1,-1,-1,-1,-1,-1,-1,-1,-1,-1,-1,-1,-1],"loss_changes":[1.3712412E3,2.0527148E2,2.2295282E2,3.3449585E1,3.758568E1,1.0484973E2,9.0057434E1,2.7167542E1,3.060086E1,3.4321747E1,2.5247532E1,3.5989155E1,7.450275E1,2.1994503E1,4.1030823E1,2.022731E1,2.2208374E1,4.682602E1,2.4341766E1,2.547865E1,3.5496147E1,1.8255857E1,2.0921398E1,3.076209E1,2.9819485E1,5.0053E1,2.821138E1,1.9428387E1,1.5981598E1,2.0377125E1,2.454071E1,1.7101952E1,1.54296875E1,1.6160975E1,2.0041107E1,2.7465965E1,9.5439205E0,1.8156143E1,1.3694962E1,1.3749489E1,1.2004482E1,2.4417717E1,4.3537224E1,1.7343302E1,2.1496925E1,1.1502335E1,1.4778635E1,2.591809E1,1.4661443E1,1.8370419E1,1.978087E1,8.062279E1,3.4813404E1,2.1235535E1,1.1893711E1,1.1501953E1,2.099993E1,2.0009514E1,2.4491488E1,0E0,1.2957966E1,1.7082214E1,2.2632294E1,0E0,0E0,0E0,0E0,0E0,0E0,0E0,0E0,0E0,0E0,0E0,0E0,0E0,0E0,0E0,0E0,0E0,0E0,0E0,0E0,0E0,0E0,0E0,0E0,0E0,0E0,0E0,0E0,0E0,0E0,0E0,0E0,0E0,0E0,0E0,0E0,0E0,0E0,0E0,0E0,0E0,0E0,0E0,0E0,0E0,0E0,0E0,0E0,0E0,0E0,0E0,0E0,0E0,0E0,0E0,0E0,0E0,0E0,0E0,0E0,0E0,0E0],"parents":[2147483647,0,0,1,1,2,2,3,3,4,4,5,5,6,6,7,7,8,8,9,9,10,10,11,11,12,12,13,13,14,14,15,15,16,16,17,17,18,18,19,19,20,20,21,21,22,22,23,23,24,24,25,25,26,26,27,27,28,28,29,29,30,30,31,31,32,32,33,33,34,34,35,35,36,36,37,37,38,38,39,39,40,40,41,41,42,42,43,43,44,44,45,45,46,46,47,47,48,48,49,49,50,50,51,51,52,52,53,53,54,54,55,55,56,56,57,57,58,58,60,60,61,61,62,62],"right_children":[2,4,6,8,10,12,14,16,18,20,22,24,26,28,30,32,34,36,38,40,42,44,46,48,50,52,54,56,58,60,62,64,66,68,70,72,74,76,78,80,82,84,86,88,90,92,94,96,98,100,102,104,106,108,110,112,114,116,118,-1,120,122,124,-1,-1,-1,-1,-1,-1,-1,-1,-1,-1,-1,-1,-1,-1,-1,-1,-1,-1,-1,-1,-1,-1,-1,-1,-1,-1,-1,-1,-1,-1,-1,-1,-1,-1,-1,-1,-1,-1,-1,-1,-1,-1,-1,-1,-1,-1,-1,-1,-1,-1,-1,-1,-1,-1,-1,-1,-1,-1,-1,-1,-1,-1],"split_conditions":[1.2E1,9E0,1.5E1,-4.5275465E-1,1.2E1,1.6E1,1.6E1,-8.450045E-1,1.23E2,9E0,8.386798E-1,-3.6785206E-1,-1.3182293E-1,-4.408683E-1,4E0,-5.1839423E-1,-1.117025E0,9.2E1,1.5E1,9.8058355E-1,5.175696E-1,1.68E2,2.3087102E-1,9.3E1,9E0,9E0,3.0639098E0,-1.727011E0,1.1189326E0,-1.0827317E0,1.6E1,-1.308391E0,1.08E2,2.57E2,8E0,-2.8464755E-1,5.8822002E-2,8.8665205E-1,2.7225683E0,6.7182815E-1,2.8261826E0,4.774606E-1,3.106351E-1,6.57314E-1,2.6042694E-1,2.04E2,3.1E2,4.666883E-1,-1.4792429E0,1.2E1,6E0,6E0,3.02E2,1E0,2.52E2,-2.1127667E0,2E0,2.52E2,1.6E1,-1.6466121E-1,5.3264678E-2,-3.1691054E-1,8E0,8.372249E-2,-4.0491592E-2,-4.8046518E-2,-9.741684E-2,-2.5959168E-2,-1.446815E-1,-1.3245809E-1,-7.6322444E-2,-1.0696118E-2,-8.2680054E-2,1.5011089E-2,-2.885448E-2,-6.6763945E-2,-2.4638835E-2,-9.701E-2,5.359586E-2,-2.3845017E-2,-1.8095373E-3,-1.591373E-1,1.0669267E-1,-3.741428E-2,1.0055077E-1,-1.3818626E-1,-2.3580179E-2,-6.553833E-2,4.9063273E-2,8.908894E-2,-2.2679247E-2,1.14763275E-1,-1.2491542E-1,-1.5584895E-1,5.3769507E-2,-7.16153E-2,-6.59337E-3,4.1779842E-2,-1.1265203E-2,2.663207E-2,-1.5122737E-2,-4.0104132E-2,1.338491E-2,1.4019247E-4,5.1546942E-2,-7.0223436E-3,-1.0256914E-1,1.2164544E-3,5.1434796E-2,-1.7298877E-1,-7.230177E-3,-2.3181299E-2,1.4159782E-1,-1.4196426E-1,-1.3646287E-3,5.0785918E-2,3.4531474E-3,3.423972E-2,-7.5139664E-2,5.537197E-2,1.756703E-2,6.930686E-2,9.911605E-2,7.587332E-2,2.851708E-2],"split_indices":[6,6,0,3,5,6,6,3,1,5,8,3,3,3,5,10,8,1,0,10,10,1,7,1,5,5,3,7,8,3,0,7,2,1,6,3,8,7,8,10,3,10,8,10,3,2,1,7,7,0,0,5,1,0,2,7,5,2,0,0,3,3,5,0,0,0,0,0,0,0,0,0,0,0,0,0,0,0,0,0,0,0,0,0,0,0,0,0,0,0,0,0,0,0,0,0,0,0,0,0,0,0,0,0,0,0,0,0,0,0,0,0,0,0,0,0,0,0,0,0,0,0,0,0,0],"split_type":[0,0,0,0,0,0,0,0,0,0,0,0,0,0,0,0,0,0,0,0,0,0,0,0,0,0,0,0,0,0,0,0,0,0,0,0,0,0,0,0,0,0,0,0,0,0,0,0,0,0,0,0,0,0,0,0,0,0,0,0,0,0,0,0,0,0,0,0,0,0,0,0,0,0,0,0,0,0,0,0,0,0,0,0,0,0,0,0,0,0,0,0,0,0,0,0,0,0,0,0,0,0,0,0,0,0,0,0,0,0,0,0,0,0,0,0,0,0,0,0,0,0,0,0,0],"sum_hessian":[1.1324332E4,4.076307E3,7.248025E3,2.102244E3,1.974063E3,4.7631685E3,2.4848564E3,7.444884E2,1.3577555E3,1.7975651E3,1.7649791E2,1.9084868E3,2.8546816E3,8.967248E2,1.5881315E3,3.6702054E2,3.7746786E2,4.8693665E2,8.7081885E2,1.3900763E3,4.074888E2,1.4746585E2,2.9032047E1,8.796609E2,1.0288259E3,1.6646948E3,1.1899867E3,2.3952304E2,6.572018E2,3.7691443E2,1.2112172E3,9.356944E1,2.7345108E2,6.944352E1,3.0802435E2,2.7825302E2,2.0868364E2,5.975008E2,2.7331802E2,1.372694E3,1.7382294E1,2.6871246E2,1.3877635E2,5.0882294E1,9.6583565E1,8.976653E0,2.0055395E1,2.6113467E2,6.1852625E2,7.436323E2,2.8519357E2,1.232826E3,4.3186877E2,1.17322E3,1.67668E1,1.9090408E1,2.2043263E2,5.6932385E2,8.787793E1,3.9952934E0,3.7291913E2,8.006649E2,4.105522E2,1.1848688E1,8.172075E1,1.076995E2,1.6575159E2,5.579019E1,1.3653327E1,2.0897922E2,9.9045135E1,7.16145E1,2.0663852E2,1.2977322E2,7.891041E1,4.6427896E2,1.3322185E2,2.6773685E2,5.5811777E0,9.7325916E2,3.994348E2,1.6186352E1,1.195942E0,2.561563E2,1.2556139E1,8.3396416E1,5.5379932E1,2.6091074E1,2.479122E1,7.477465E1,2.1808916E1,7.2292347E0,1.747418E0,1.6419777E1,3.6356184E0,1.628243E2,9.831037E1,5.643672E1,5.6208954E2,6.1730286E2,1.2632946E2,1.6961572E2,1.1557785E2,6.814089E2,5.514172E2,3.9058432E2,4.1284473E1,9.135825E1,1.0818617E3,6.745472E0,1.0021329E1,5.6349015E0,1.3455506E1,1.0189569E1,2.1024306E2,4.582601E2,1.1106373E2,5.7335487E1,3.054244E1,2.1374382E2,1.5917531E2,3.842758E2,4.1638913E2,2.2450134E2,1.8605084E2],"tree_param":{"num_deleted":"0","num_feature":"12","num_nodes":"125","size_leaf_vector":"1"}},{"base_weights":[4.585582E-3,-4.2504516E-1,2.452937E-1,-5.772068E-1,-2.579943E-1,6.6378556E-2,3.5988554E-1,-7.247925E-1,-4.6258777E-1,-1.6736199E-1,-3.613057E-1,-2.1049197E-1,1.4104953E-1,2.6007882E-1,4.5623568E-1,-9.3840426E-1,-5.790364E-1,-1.2955046E0,-4.4207552E-1,-2.9202378E-1,-2.336061E-2,-2.949936E-1,-6.97023E-1,-1.0454535E0,-1.5325451E-1,-1.1748338E0,1.497014E-1,-3.7047297E-2,3.3605582E-1,3.4604293E-1,5.706089E-1,-4.9740422E-1,-1.1911485E0,-5.344125E-1,-1.4139578E0,8.835164E-2,-1.4454616E0,-7.951508E-1,-3.9132884E-1,-5.5474627E-1,-1.6228476E-1,6.776233E-2,-4.217059E-1,-1.05820864E-1,-4.148963E-1,-3.5223326E-1,-1.0519278E0,-4.335982E-1,-1.8515699E-1,-5.5717283E-1,-6.7863785E-2,-1.77729E-1,5.0432354E-1,-2.4007303E-1,1.7483224E-1,-1.6289356E-1,2.663268E-1,3.595381E-1,-2.4346127E-1,3.1212163E-1,7.552347E-1,6.4341724E-1,1.9598503E-1,-1.0582399E-1,-1.8546921E-4,-2.8160742E-2,-1.2956686E-1,-7.1680926E-2,-3.3594985E-2,-6.503211E-3,-1.5577853E-1,-1.7759709E-1,-4.6479102E-2,-8.607598E-2,1.00689165E-1,-7.747521E-3,-4.8398416E-2,-2.196949E-2,-8.787351E-2,-6.893921E-2,3.5030637E-3,-7.0566065E-3,7.181037E-2,3.8078707E-2,-6.3297726E-2,-2.9356277E-2,3.6940616E-2,-2.5163943E-2,-6.530557E-2,-5.806745E-2,5.2773632E-2,-1.309915E-1,-4.7172178E-2,4.3871105E-3,-1.661389E-1,-8.565489E-2,1.5858954E-2,-2.6367923E-2,1.507352E-2,1.1166096E-1,-3.2343187E-3,1.4113191E-2,-8.928373E-2,2.3628162E-2,-1.1307534E-3,-1.0236313E-2,-1.1308684E-1,9.885197E-2,9.8487325E-3,2.5739802E-2,4.7732797E-2,7.688751E-2,-4.722571E-2,-1.2560292E-2,3.5162173E-2,9.642128E-2,5.240798E-3,-9.6029066E-2,6.535789E-2,5.622067E-2,-5.4078675E-3],"categories":[],"categories_nodes":[],"categories_segments":[],"categories_sizes":[],"default_left":[0,0,0,0,0,0,0,0,0,0,0,0,0,0,0,0,0,0,0,0,0,0,0,0,0,0,0,0,0,0,0,0,0,0,0,0,0,0,0,0,0,0,0,0,0,0,0,0,0,0,0,0,0,0,0,0,0,0,0,0,0,0,0,0,0,0,0,0,0,0,0,0,0,0,0,0,0,0,0,0,0,0,0,0,0,0,0,0,0,0,0,0,0,0,0,0,0,0,0,0,0,0,0,0,0,0,0,0,0,0,0,0,0,0,0,0,0,0,0,0,0],"id":3,"left_children":[1,3,5,7,9,11,13,15,17,19,21,23,25,27,29,31,33,35,37,39,41,43,45,47,49,51,53,55,57,59,61,63,65,67,69,-1,71,73,75,77,79,81,83,85,87,89,91,93,-1,95,97,-1,99,101,103,105,107,109,111,113,115,117,119,-1,-1,-1,-1,-1,-1,-1,-1,-1,-1,-1,-1,-1,-1,-1,-1,-1,-1,-1,-1,-1,-1,-1,-1,-1,-1,-1,-1,-1,-1,-1,-1,-1,-1,-1,-1,-1,-1,-1,-1,-1,-1,-1,-1,-1,-1,-1,-1,-1,-1,-1,-1,-1,-1,-1,-1,-1,-1],"loss_changes":[1.1649799E3,1.0267236E2,1.4800055E2,3.546051E1,1.8010956E1,5.8331924E1,4.2201782E1,2.820224E1,1.9823853E1,1.8482468E1,1.9853844E1,2.8486137E1,2.546888E1,4.8863922E1,2.8006897E1,4.0965454E1,1.9788116E1,1.0483803E1,2.059227E1,1.872385E1,1.7415367E1,1.7062393E1,1.7726395E1,1.8078964E1,1.9350407E1,1.5691015E1,2.1670284E1,1.6901676E1,2.3540558E1,1.5619949E1,2.9783691E1,3.8227093E1,2.2098724E1,1.8764801E1,5.2083817E0,0E0,7.841858E0,1.808567E1,2.9682907E1,1.9569355E1,3.860118E1,3.51969E1,1.5383292E1,2.6331501E1,1.776976E1,1.5688057E1,1.0215218E1,1.3596804E1,0E0,2.1126814E1,1.9951223E1,0E0,1.5609883E0,3.3510235E1,2.373521E1,1.8207108E1,1.5641506E1,1.9809143E1,1.604613E1,1.8312462E1,1.2689781E1,1.5582733E1,1.6503359E1,0E0,0E0,0E0,0E0,0E0,0E0,0E0,0E0,0E0,0E0,0E0,0E0,0E0,0E0,0E0,0E0,0E0,0E0,0E0,0E0,0E0,0E0,0E0,0E0,0E0,0E0,0E0,0E0,0E0,0E0,0E0,0E0,0E0,0E0,0E0,0E0,0E0,0E0,0E0,0E0,0E0,0E0,0E0,0E0,0E0,0E0,0E0,0E0,0E0,0E0,0E0,0E0,0E0,0E0,0E0,0E0,0E0,0E0],"parents":[2147483647,0,0,1,1,2,2,3,3,4,4,5,5,6,6,7,7,8,8,9,9,10,10,11,11,12,12,13,13,14,14,15,15,16,16,17,17,18,18,19,19,20,20,21,21,22,22,23,23,24,24,25,25,26,26,27,27,28,28,29,29,30,30,31,31,32,32,33,33,34,34,36,36,37,37,38,38,39,39,40,40,41,41,42,42,43,43,44,44,45,45,46,46,47,47,49,49,50,50,52,52,53,53,54,54,55,55,56,56,57,57,58,58,59,59,60,60,61,61,62,62],"right_children":[2,4,6,8,10,12,14,16,18,20,22,24,26,28,30,32,34,36,38,40,42,44,46,48,50,52,54,56,58,60,62,64,66,68,70,-1,72,74,76,78,80,82,84,86,88,90,92,94,-1,96,98,-1,100,102,104,106,108,110,112,114,116,118,120,-1,-1,-1,-1,-1,-1,-1,-1,-1,-1,-1,-1,-1,-1,-1,-1,-1,-1,-1,-1,-1,-1,-1,-1,-1,-1,-1,-1,-1,-1,-1,-1,-1,-1,-1,-1,-1,-1,-1,-1,-1,-1,-1,-1,-1,-1,-1,-1,-1,-1,-1,-1,-1,-1,-1,-1,-1,-1],"split_conditions":[1.2E1,9E0,1.6E1,-2.8464755E-1,-3.1990257E-1,9.2E1,-2.7785534E-1,7E0,-8.1823003E-1,-1.3182293E-1,9.7705436E-1,-1.2967626E0,-1.2066895E0,-8.2810885E-1,1.9E1,-4.0751112E-1,3.23E2,-2.437736E0,-1.117025E0,-4.339387E-1,1.549248E0,-4.7214392E-1,2.2682787E-1,-2.1809444E-1,-6.014389E-1,1.3455569E0,2.4E1,-1.3972382E-1,1.6294848E0,1.6095291E0,1.8684816E0,-3.51513E-1,-1.1082025E0,1.76E2,-7.2028154E-1,8.835164E-2,1.3709526E0,9.8399395E-1,-6.166973E-1,1.59E2,9.4E1,9.820988E-1,-9.0994394E-1,-7.0330685E-1,2.06E2,3.07E2,8.9172035E-1,-1.3711443E0,-1.8515699E-1,8.386798E-1,-3.5936183E-1,-1.77729E-1,-9.7205734E-1,2.26E2,2.52E2,-8.908937E-1,-1.0159608E0,4.3746376E-1,-7.475979E-1,-1.3555925E0,2.51E2,1.2E1,-4.3005344E-1,-1.0582399E-1,-1.8546921E-4,-2.8160742E-2,-1.2956686E-1,-7.1680926E-2,-3.3594985E-2,-6.503211E-3,-1.5577853E-1,-1.7759709E-1,-4.6479102E-2,-8.607598E-2,1.00689165E-1,-7.747521E-3,-4.8398416E-2,-2.196949E-2,-8.787351E-2,-6.893921E-2,3.5030637E-3,-7.0566065E-3,7.181037E-2,3.8078707E-2,-6.3297726E-2,-2.9356277E-2,3.6940616E-2,-2.5163943E-2,-6.530557E-2,-5.806745E-2,5.2773632E-2,-1.309915E-1,-4.7172178E-2,4.3871105E-3,-1.661389E-1,-8.565489E-2,1.5858954E-2,-2.6367923E-2,1.507352E-2,1.1166096E-1,-3.2343187E-3,1.4113191E-2,-8.928373E-2,2.3628162E-2,-1.1307534E-3,-1.0236313E-2,-1.1308684E-1,9.885197E-2,9.8487325E-3,2.5739802E-2,4.7732797E-2,7.688751E-2,-4.722571E-2,-1.2560292E-2,3.5162173E-2,9.642128E-2,5.240798E-3,-9.6029066E-2,6.535789E-2,5.622067E-2,-5.4078675E-3],"split_indices":[6,6,6,3,9,1,3,6,9,3,7,8,3,7,6,7,1,7,8,7,3,8,10,9,10,9,2,9,7,9,3,9,3,1,9,0,3,10,8,2,2,3,10,8,2,1,9,8,0,8,3,0,7,1,2,7,10,10,9,10,2,2,8,0,0,0,0,0,0,0,0,0,0,0,0,0,0,0,0,0,0,0,0,0,0,0,0,0,0,0,0,0,0,0,0,0,0,0,0,0,0,0,0,0,0,0,0,0,0,0,0,0,0,0,0,0,0,0,0,0,0],"split_type":[0,0,0,0,0,0,0,0,0,0,0,0,0,0,0,0,0,0,0,0,0,0,0,0,0,0,0,0,0,0,0,0,0,0,0,0,0,0,0,0,0,0,0,0,0,0,0,0,0,0,0,0,0,0,0,0,0,0,0,0,0,0,0,0,0,0,0,0,0,0,0,0,0,0,0,0,0,0,0,0,0,0,0,0,0,0,0,0,0,0,0,0,0,0,0,0,0,0,0,0,0,0,0,0,0,0,0,0,0,0,0,0,0,0,0,0,0,0,0,0,0],"sum_hessian":[1.12630205E4,4.0440981E3,7.218922E3,2.1150798E3,1.9290183E3,2.8190486E3,4.3998735E3,9.222496E2,1.1928303E3,1.0289597E3,9.0005865E2,5.9840814E2,2.2206404E3,2.1629873E3,2.2368862E3,3.7184973E2,5.5039984E2,2.7175821E1,1.1656545E3,5.509635E2,4.7799615E2,7.5316876E2,1.468899E2,3.7282204E1,5.61126E2,1.3624767E1,2.2070156E3,4.405651E2,1.7224222E3,1.1413142E3,1.0955719E3,1.3655327E2,2.3529648E2,5.2403204E2,2.636778E1,1.4348125E0,2.5741009E1,1.4463974E2,1.0210148E3,1.810533E2,3.6991022E2,3.8968436E2,8.831183E1,2.929145E2,4.6025427E2,7.5517334E1,7.137256E1,2.2069206E1,1.5212997E1,9.6959526E1,4.6416644E2,9.98416E0,3.6406076E0,1.3316107E2,2.0738545E3,3.1171988E2,1.2884521E2,1.6557115E3,6.671064E1,1.0555719E3,8.574232E1,9.166944E2,1.788775E2,6.3524372E1,7.302889E1,2.463296E1,2.1066351E2,2.7170773E2,2.523243E2,2.6804633E0,2.3687319E1,1.8645916E1,7.0950913E0,1.4006268E2,4.5770698E0,2.3313773E2,7.87877E2,8.983204E1,9.122126E1,1.0007542E2,2.698348E2,3.2207095E2,6.761339E1,1.8237219E1,7.007461E1,2.1023994E2,8.267455E1,2.7428802E2,1.8596626E2,6.022339E1,1.5293948E1,4.8534252E1,2.283831E1,1.6584148E1,5.4850564E0,6.822636E1,2.8733175E1,2.4473383E2,2.1943262E2,1.1957412E0,2.4448664E0,8.456191E1,4.859915E1,1.5589402E3,5.1491437E2,2.9441495E2,1.730492E1,2.3375145E1,1.0547007E2,8.884701E2,7.672415E2,1.1862585E1,5.4848053E1,8.718972E1,9.683822E2,6.580422E1,1.9938091E1,5.1832175E0,9.115112E2,7.2074776E1,1.06802734E2],"tree_param":{"num_deleted":"0","num_feature":"12","num_nodes":"121","size_leaf_vector":"1"}},{"base_weights":[1.0432087E-2,-4.249164E-1,1.9618241E-1,-5.601696E-1,-2.1086279E-1,3.0037373E-2,3.2865465E-1,-5.7470876E-1,2.2879967E-1,-1.4082223E-1,-4.19503E-1,-1.11352E-1,1.2517598E-1,3.9663872E-1,1.2711787E-1,-5.8868223E-1,1.4539333E-1,-1.1403904E0,6.8181956E-1,1.344581E-1,-1.9444016E-1,-1.802171E-1,-3.464091E-1,-9.237942E-1,-9.5516086E-2,-1.3146019E-2,1.8966648E-1,1.9875138E-1,6.3751733E-1,3.692477E-4,4.3818852E-1,-6.5280604E-1,-4.4708344E-1,-1.4389467E-1,3.5098177E-1,-1.5910888E-1,4.758167E-2,-2.7874482E-1,9.714558E-1,6.990322E-2,1.3990442E0,-2.5952104E-1,1.2370112E-1,-1.67747E-1,-3.1048524E-1,-1.470549E0,1.0068711E-1,-1.5914986E-1,1.1128189E-1,3.8219172E-1,-8.564001E-2,4.1860527E-1,1.514773E-1,-5.6872946E-1,2.3960394E-1,6.681293E-1,-1.3608424E-2,-1.4592238E-1,1.8735464E-1,2.5834215E-1,8.320233E-1,-7.754332E-2,-5.659935E-2,-3.3247285E-2,-7.856841E-2,-1.2879978E-1,5.118686E-2,-1.4434738E-1,1.6040431E-1,1.106689E-1,-2.893334E-3,1.2752975E-2,-1.513102E-1,3.5817742E-2,1.6869524E-1,-1.8833352E-2,-6.52707E-2,3.950487E-2,-3.0709237E-2,-2.2568041E-2,-8.805116E-2,-1.7188063E-1,5.1922267E-3,-7.058158E-2,8.342355E-2,-3.0271564E-2,1.8101865E-3,2.1138253E-2,-5.5750538E-2,5.1114928E-2,-1.1808371E-1,4.2573508E-4,-3.504048E-2,6.3462846E-2,-3.132958E-3,1.7245492E-2,-5.2485228E-2,-8.297577E-2,1.7369566E-2,5.49151E-3,3.59095E-2,5.795095E-2,8.4903724E-2,7.995698E-3,-1.5197201E-1,-9.329768E-3,-1.0579552E-1,3.7171334E-2,-1.0102005E-2,1.9377185E-3,6.829055E-2,-1.1941209E-1,8.749145E-2],"categories":[],"categories_nodes":[],"categories_segments":[],"categories_sizes":[],"default_left":[0,0,0,0,0,0,0,0,0,0,0,0,0,0,0,0,0,0,0,0,0,0,0,0,0,0,0,0,0,0,0,0,0,0,0,0,0,0,0,0,0,0,0,0,0,0,0,0,0,0,0,0,0,0,0,0,0,0,0,0,0,0,0,0,0,0,0,0,0,0,0,0,0,0,0,0,0,0,0,0,0,0,0,0,0,0,0,0,0,0,0,0,0,0,0,0,0,0,0,0,0,0,0,0,0,0,0,0,0,0,0,0,0],"id":4,"left_children":[1,3,5,7,9,11,13,15,17,19,21,23,25,27,29,31,33,35,37,39,41,-1,43,45,47,49,51,53,55,57,59,61,63,-1,65,-1,-1,67,69,71,73,75,77,-1,79,81,83,85,87,89,91,93,95,97,99,101,103,105,107,109,111,-1,-1,-1,-1,-1,-1,-1,-1,-1,-1,-1,-1,-1,-1,-1,-1,-1,-1,-1,-1,-1,-1,-1,-1,-1,-1,-1,-1,-1,-1,-1,-1,-1,-1,-1,-1,-1,-1,-1,-1,-1,-1,-1,-1,-1,-1,-1,-1,-1,-1,-1,-1],"loss_changes":[9.100121E2,9.7318115E1,1.7359698E2,2.378186E1,1.9007504E1,4.70981E1,6.007788E1,2.0459229E1,2.4361448E1,1.4466242E1,3.246573E1,1.8032433E1,1.8671452E1,1.5627191E2,4.370285E1,1.7744324E1,1.3320201E1,7.915139E0,8.393296E0,1.2970459E1,1.699456E1,0E0,1.4408215E1,1.5166975E1,1.8212181E1,1.9131895E1,1.2416431E1,5.6658478E1,2.9495789E1,2.1597433E1,2.2513618E1,1.4092957E1,2.388984E1,0E0,1.0054247E1,0E0,0E0,1.8851757E1,3.0968437E0,1.4182832E1,1.7099638E0,1.8922585E1,1.6463943E1,0E0,1.4556654E1,6.721245E0,6.662368E0,2.6921106E1,2.1937368E1,2.145518E1,1.3424792E1,1.9799221E1,1.7469305E1,1.7857927E1,3.7769135E1,2.2160278E1,9.620481E0,2.1162054E1,1.8462603E1,2.2483856E1,9.747932E0,0E0,0E0,0E0,0E0,0E0,0E0,0E0,0E0,0E0,0E0,0E0,0E0,0E0,0E0,0E0,0E0,0E0,0E0,0E0,0E0,0E0,0E0,0E0,0E0,0E0,0E0,0E0,0E0,0E0,0E0,0E0,0E0,0E0,0E0,0E0,0E0,0E0,0E0,0E0,0E0,0E0,0E0,0E0,0E0,0E0,0E0,0E0,0E0,0E0,0E0,0E0,0E0],"parents":[2147483647,0,0,1,1,2,2,3,3,4,4,5,5,6,6,7,7,8,8,9,9,10,10,11,11,12,12,13,13,14,14,15,15,16,16,17,17,18,18,19,19,20,20,22,22,23,23,24,24,25,25,26,26,27,27,28,28,29,29,30,30,31,31,32,32,34,34,37,37,38,38,39,39,40,40,41,41,42,42,44,44,45,45,46,46,47,47,48,48,49,49,50,50,51,51,52,52,53,53,54,54,55,55,56,56,57,57,58,58,59,59,60,60],"right_children":[2,4,6,8,10,12,14,16,18,20,22,24,26,28,30,32,34,36,38,40,42,-1,44,46,48,50,52,54,56,58,60,62,64,-1,66,-1,-1,68,70,72,74,76,78,-1,80,82,84,86,88,90,92,94,96,98,100,102,104,106,108,110,112,-1,-1,-1,-1,-1,-1,-1,-1,-1,-1,-1,-1,-1,-1,-1,-1,-1,-1,-1,-1,-1,-1,-1,-1,-1,-1,-1,-1,-1,-1,-1,-1,-1,-1,-1,-1,-1,-1,-1,-1,-1,-1,-1,-1,-1,-1,-1,-1,-1,-1,-1,-1],"split_conditions":[1.1E1,9E0,1.6E1,2.0207107E0,2.0897731E-1,-3.7973842E-1,9E0,2.9637249E0,1.08E2,1E0,-1.0538648E0,-1.2066895E0,1.08E2,6E0,1.2E1,8E0,1.19E2,9.914566E-1,-2.4389432E-1,1.3857086E-1,-1.12749234E-1,-1.802171E-1,2.1E1,4.6810368E-1,8.386798E-1,1E0,-7.590173E-1,-1.0538648E0,2.1469622E0,-9.2767745E-2,2.63E2,-3.5087156E-1,9E0,-1.4389467E-1,1E0,-1.5910888E-1,4.758167E-2,6E0,3.3429635E-1,-9.499137E-3,2.06E2,-3.1990257E-1,-7.865175E-3,-1.67747E-1,1.1987755E0,1.4595848E0,7E0,4E0,-5.274689E-1,1.1E1,5.8645284E-1,2.6E2,3.43E2,4.4863814E-1,3E0,2E1,3.237111E0,-2.2691381E-1,1.06651895E-1,2E1,-1.1693324E0,-7.754332E-2,-5.659935E-2,-3.3247285E-2,-7.856841E-2,-1.2879978E-1,5.118686E-2,-1.4434738E-1,1.6040431E-1,1.106689E-1,-2.893334E-3,1.2752975E-2,-1.513102E-1,3.5817742E-2,1.6869524E-1,-1.8833352E-2,-6.52707E-2,3.950487E-2,-3.0709237E-2,-2.2568041E-2,-8.805116E-2,-1.7188063E-1,5.1922267E-3,-7.058158E-2,8.342355E-2,-3.0271564E-2,1.8101865E-3,2.1138253E-2,-5.5750538E-2,5.1114928E-2,-1.1808371E-1,4.2573508E-4,-3.504048E-2,6.3462846E-2,-3.132958E-3,1.7245492E-2,-5.2485228E-2,-8.297577E-2,1.7369566E-2,5.49151E-3,3.59095E-2,5.795095E-2,8.4903724E-2,7.995698E-3,-1.5197201E-1,-9.329768E-3,-1.0579552E-1,3.7171334E-2,-1.0102005E-2,1.9377185E-3,6.829055E-2,-1.1941209E-1,8.749145E-2],"split_indices":[6,6,6,7,9,3,5,3,2,4,3,3,2,5,5,6,2,9,3,9,9,0,2,9,8,4,9,3,3,3,2,3,5,0,4,0,0,4,8,9,2,9,3,0,8,7,5,4,3,5,3,2,2,9,4,6,3,3,8,6,3,0,0,0,0,0,0,0,0,0,0,0,0,0,0,0,0,0,0,0,0,0,0,0,0,0,0,0,0,0,0,0,0,0,0,0,0,0,0,0,0,0,0,0,0,0,0,0,0,0,0,0,0],"split_type":[0,0,0,0,0,0,0,0,0,0,0,0,0,0,0,0,0,0,0,0,0,0,0,0,0,0,0,0,0,0,0,0,0,0,0,0,0,0,0,0,0,0,0,0,0,0,0,0,0,0,0,0,0,0,0,0,0,0,0,0,0,0,0,0,0,0,0,0,0,0,0,0,0,0,0,0,0,0,0,0,0,0,0,0,0,0,0,0,0,0,0,0,0,0,0,0,0,0,0,0,0,0,0,0,0,0,0,0,0,0,0,0,0],"sum_hessian":[1.1251285E4,3.3645063E3,7.8867793E3,2.060763E3,1.3037434E3,3.4992673E3,4.3875117E3,2.023741E3,3.702198E1,9.773289E2,3.264145E2,1.4074413E3,2.0918262E3,3.2800796E3,1.1074321E3,1.9853972E3,3.834385E1,8.826821E0,2.8195156E1,1.5908115E2,8.1824774E2,1.5201547E1,3.1121292E2,2.5812775E1,1.3816284E3,6.654138E2,1.4264124E3,1.8017367E3,1.478343E3,7.87542E2,3.198901E2,1.3640632E3,6.21334E2,3.7150612E0,3.4628788E1,6.9142447E0,1.9125769E0,6.5407352E0,2.1654423E1,1.5235878E2,6.7223682E0,6.794414E2,1.3880634E2,6.9777136E0,3.0423523E2,1.6546614E1,9.266161E0,1.0567014E3,3.2492703E2,1.0244882E2,5.62965E2,2.024988E2,1.2239136E3,9.040536E1,1.7113313E3,1.4119362E3,6.640684E1,4.4197443E2,3.455676E2,2.2074287E2,9.914724E1,5.6211487E2,8.0194836E2,4.6568823E2,1.5564574E2,2.4691858E0,3.2159603E1,4.1850896E0,2.3556457E0,1.8982145E1,2.672276E0,1.4789438E2,4.4643984E0,1.9427749E0,4.7795935E0,5.765367E2,1.0290473E2,8.5214516E1,5.359182E1,2.6604996E2,3.818527E1,1.41158905E1,2.430724E0,4.4316115E0,4.834549E0,5.8343665E2,4.732648E2,2.8322006E2,4.1706993E1,9.52622E1,7.186624E0,4.2100296E2,1.4196205E2,1.3653499E2,6.596379E1,1.1878163E3,3.6097286E1,6.680119E1,2.3604168E1,6.728361E2,1.0384952E3,9.505173E2,4.614189E2,6.3414215E1,2.9926212E0,4.1890567E2,2.3068752E1,2.106253E2,1.3494229E2,1.4191296E2,7.88299E1,1.4989188E0,9.7648315E1],"tree_param":{"num_deleted":"0","num_feature":"12","num_nodes":"113","size_leaf_vector":"1"}},{"base_weights":[-7.847357E-4,-3.3357522E-1,1.880673E-1,-4.9300885E-1,-1.6521871E-1,1.0312874E-2,2.6213336E-1,-6.3298327E-1,-4.0505886E-1,-2.814792E-1,-8.286719E-2,-1.5910323E-1,1.1600147E-1,2.364873E-1,6.083272E-1,2.5717634E-1,-6.7212844E-1,-3.6394724E-1,-9.648393E-1,-3.5541323E-1,-4.0304802E-2,-4.6206468E-1,-4.8934285E-2,-4.515566E-1,-6.27571E-2,1.2399695E-1,-1.6320704E-1,1.4747287E-1,3.386059E-1,-6.941693E-1,6.5198046E-1,5.7297784E-1,-1.460434E-1,-3.3846545E-1,-7.7461797E-1,-4.1724724E-1,-1.4779803E-1,-1.1527306E0,1.539008E-1,-3.9393714E-1,5.7230204E-1,-1.3817261E-1,4.819473E-1,7.556835E-1,-6.2012506E-1,-1.468241E-1,-4.260159E-2,-8.3809304E-1,1.0320496E-1,6.898818E-1,-1.1684426E-1,2.7732137E-1,6.035945E-2,-8.556984E-2,2.1318834E-1,3.8989112E-1,1.4028633E-1,1.0611904E-1,-9.925792E-1,-6.762417E-2,7.095786E-1,1.5468375E-1,1.55923385E-2,-4.84675E-2,8.091553E-2,-2.6908515E-2,-8.417165E-2,-3.3445295E-2,-7.7593E-2,-5.5435278E-2,3.6580607E-3,-1.3245814E-1,-4.328539E-2,-1.4108485E-1,1.00391746E-1,-2.8647998E-2,-7.34234E-2,-1.4537106E-1,9.59176E-2,2.3399832E-2,-4.3530744E-2,1.0767212E-1,-8.008744E-2,-1.1875256E-1,1.2266713E-1,7.138416E-3,-8.619664E-2,4.7439854E-3,-1.44109195E-2,-9.215855E-2,9.4120905E-2,8.426965E-2,-3.0701686E-2,-1.3404256E-1,8.416068E-2,-9.250819E-3,-1.7201282E-1,9.854338E-2,2.119572E-2,-5.980101E-2,9.207389E-3,-3.4274675E-2,8.915164E-3,3.1309195E-2,2.6462239E-3,2.4958238E-2,4.9947068E-2,-4.2354213E-3,3.1738613E-2,7.5676115E-3,-1.7532946E-1,3.3451766E-2,-1.17121376E-1,8.875559E-2,3.439899E-2],"categories":[],"categories_nodes":[],"categories_segments":[],"categories_sizes":[],"default_left":[0,0,0,0,0,0,0,0,0,0,0,0,0,0,0,0,0,0,0,0,0,0,0,0,0,0,0,0,0,0,0,0,0,0,0,0,0,0,0,0,0,0,0,0,0,0,0,0,0,0,0,0,0,0,0,0,0,0,0,0,0,0,0,0,0,0,0,0,0,0,0,0,0,0,0,0,0,0,0,0,0,0,0,0,0,0,0,0,0,0,0,0,0,0,0,0,0,0,0,0,0,0,0,0,0,0,0,0,0,0,0,0,0,0,0],"id":5,"left_children":[1,3,5,7,9,11,13,15,17,19,21,23,25,27,29,31,33,35,37,39,41,43,45,47,49,51,-1,53,55,57,59,61,-1,63,65,67,69,71,73,75,77,79,81,83,85,-1,87,89,91,93,95,97,99,101,103,105,107,-1,109,111,113,-1,-1,-1,-1,-1,-1,-1,-1,-1,-1,-1,-1,-1,-1,-1,-1,-1,-1,-1,-1,-1,-1,-1,-1,-1,-1,-1,-1,-1,-1,-1,-1,-1,-1,-1,-1,-1,-1,-1,-1,-1,-1,-1,-1,-1,-1,-1,-1,-1,-1,-1,-1,-1,-1],"loss_changes":[7.0644135E2,1.0914847E2,9.440799E1,2.5468079E1,1.894154E1,3.780236E1,4.4797577E1,2.8207367E1,2.9245377E1,1.4623184E1,1.4915294E1,2.2826118E1,1.8373322E1,4.280365E1,2.0266632E1,1.9611696E1,2.6101196E1,1.3759415E1,1.8545418E1,2.2675583E1,9.968789E0,1.8799269E1,9.524874E0,4.3152683E1,2.4964466E1,1.2619804E1,0E0,3.8619297E1,2.2268234E1,7.226483E0,1.40448E1,1.1925342E1,0E0,3.1087055E1,1.9752594E1,2.8303299E1,1.7924929E1,8.696999E0,1.9302704E1,2.186583E1,2.134442E1,1.8230942E1,2.4361202E1,1.1882858E1,1.42503395E1,0E0,9.722345E0,1.8467613E1,2.5546953E1,1.3797504E1,2.2125694E1,1.7360542E1,1.919165E1,2.497539E1,3.66744E1,2.6678162E1,1.4650356E1,0E0,8.737984E0,1.1903751E1,2.0044708E1,0E0,0E0,0E0,0E0,0E0,0E0,0E0,0E0,0E0,0E0,0E0,0E0,0E0,0E0,0E0,0E0,0E0,0E0,0E0,0E0,0E0,0E0,0E0,0E0,0E0,0E0,0E0,0E0,0E0,0E0,0E0,0E0,0E0,0E0,0E0,0E0,0E0,0E0,0E0,0E0,0E0,0E0,0E0,0E0,0E0,0E0,0E0,0E0,0E0,0E0,0E0,0E0,0E0,0E0],"parents":[2147483647,0,0,1,1,2,2,3,3,4,4,5,5,6,6,7,7,8,8,9,9,10,10,11,11,12,12,13,13,14,14,15,15,16,16,17,17,18,18,19,19,20,20,21,21,22,22,23,23,24,24,25,25,27,27,28,28,29,29,30,30,31,31,33,33,34,34,35,35,36,36,37,37,38,38,39,39,40,40,41,41,42,42,43,43,44,44,46,46,47,47,48,48,49,49,50,50,51,51,52,52,53,53,54,54,55,55,56,56,58,58,59,59,60,60],"right_children":[2,4,6,8,10,12,14,16,18,20,22,24,26,28,30,32,34,36,38,40,42,44,46,48,50,52,-1,54,56,58,60,62,-1,64,66,68,70,72,74,76,78,80,82,84,86,-1,88,90,92,94,96,98,100,102,104,106,108,-1,110,112,114,-1,-1,-1,-1,-1,-1,-1,-1,-1,-1,-1,-1,-1,-1,-1,-1,-1,-1,-1,-1,-1,-1,-1,-1,-1,-1,-1,-1,-1,-1,-1,-1,-1,-1,-1,-1,-1,-1,-1,-1,-1,-1,-1,-1,-1,-1,-1,-1,-1,-1,-1,-1,-1,-1],"split_conditions":[1.2E1,9E0,1.5E1,7E0,3E0,-3.9671895E-1,1.8112651E0,4E0,3.16E2,1E1,4.4E1,8.9E1,3.47E2,-1.5899175E-1,4E0,1.5067967E0,-8.104846E-1,8.8665205E-1,1.2098379E0,3.43E2,1.5104216E0,1.8E1,5E0,4.7711384E-1,-1.727011E0,-6.327135E-1,-1.6320704E-1,-7.809655E-1,1.3369915E0,-1.2032933E0,2.9E1,8.8E1,-1.460434E-1,6E0,4.3E1,9E0,-4.578488E-1,1.1E1,1.3921668E-1,2.48E2,-4.221897E-1,5.057292E-1,2.03E2,9.4E1,-7.9600775E-1,-1.468241E-1,5E0,3.1341162E0,7.4E1,1E2,1.9402233E0,-1.8450474E0,2.4E1,3E0,9E0,1.8E1,2.03E2,1.0611904E-1,-9.5580405E-1,4E0,2.32E2,1.5468375E-1,1.55923385E-2,-4.84675E-2,8.091553E-2,-2.6908515E-2,-8.417165E-2,-3.3445295E-2,-7.7593E-2,-5.5435278E-2,3.6580607E-3,-1.3245814E-1,-4.328539E-2,-1.4108485E-1,1.00391746E-1,-2.8647998E-2,-7.34234E-2,-1.4537106E-1,9.59176E-2,2.3399832E-2,-4.3530744E-2,1.0767212E-1,-8.008744E-2,-1.1875256E-1,1.2266713E-1,7.138416E-3,-8.619664E-2,4.7439854E-3,-1.44109195E-2,-9.215855E-2,9.4120905E-2,8.426965E-2,-3.0701686E-2,-1.3404256E-1,8.416068E-2,-9.250819E-3,-1.7201282E-1,9.854338E-2,2.119572E-2,-5.980101E-2,9.207389E-3,-3.4274675E-2,8.915164E-3,3.1309195E-2,2.6462239E-3,2.4958238E-2,4.9947068E-2,-4.2354213E-3,3.1738613E-2,7.5676115E-3,-1.7532946E-1,3.3451766E-2,-1.17121376E-1,8.875559E-2,3.439899E-2],"split_indices":[6,6,6,6,4,3,9,6,1,5,1,1,2,3,5,3,7,7,9,2,7,1,2,7,7,9,0,7,3,3,2,2,0,5,2,5,3,5,7,1,3,7,2,2,7,0,4,9,2,1,7,7,2,4,5,6,2,0,7,4,2,0,0,0,0,0,0,0,0,0,0,0,0,0,0,0,0,0,0,0,0,0,0,0,0,0,0,0,0,0,0,0,0,0,0,0,0,0,0,0,0,0,0,0,0,0,0,0,0,0,0,0,0,0,0],"split_type":[0,0,0,0,0,0,0,0,0,0,0,0,0,0,0,0,0,0,0,0,0,0,0,0,0,0,0,0,0,0,0,0,0,0,0,0,0,0,0,0,0,0,0,0,0,0,0,0,0,0,0,0,0,0,0,0,0,0,0,0,0,0,0,0,0,0,0,0,0,0,0,0,0,0,0,0,0,0,0,0,0,0,0,0,0,0,0,0,0,0,0,0,0,0,0,0,0,0,0,0,0,0,0,0,0,0,0,0,0,0,0,0,0,0,0],"sum_hessian":[1.1238446E4,4.0684158E3,7.1700303E3,2.0885916E3,1.9798243E3,2.109202E3,5.0608286E3,8.035406E2,1.2850509E3,8.1990216E2,1.1599222E3,8.101104E2,1.2990914E3,4.7133467E3,3.4748187E2,3.361296E1,7.699277E2,1.1986678E3,8.638294E1,6.2716565E2,1.9273651E2,9.4235146E1,1.0656871E3,1.9983511E2,6.1027527E2,1.2941014E3,4.9900045E0,2.5195542E3,2.1937925E3,1.0784974E1,3.3669687E2,2.8955572E1,4.6573896E0,1.8193286E2,5.879948E2,9.608119E2,2.3785602E2,7.393522E1,1.244773E1,6.02713E2,2.4452623E1,1.6293803E2,2.9798462E1,1.0391869E1,8.384328E1,3.7083445E0,1.0619788E3,1.17473434E2,8.236169E1,4.0127953E1,5.7014734E2,3.785904E2,9.1551105E2,5.5413983E2,1.9654143E3,1.7422761E3,4.5151636E2,1.1956371E0,9.589337E0,2.4939548E1,3.1175732E2,7.869837E0,2.1085735E1,1.618859E2,2.004697E1,6.94859E1,5.1850885E2,7.8219196E2,1.7861996E2,7.358798E1,1.6426804E2,5.9008533E1,1.4926681E1,4.1494484E0,8.298282E0,4.5946686E2,1.4324617E2,3.4785085E0,2.0974115E1,7.242983E1,9.050821E1,2.0468845E1,9.329617E0,1.7305568E0,8.661311E0,2.190734E1,6.193594E1,5.630567E2,4.98922E2,1.12668594E2,4.8048368E0,2.9010782E1,5.3350903E1,2.24548E0,3.7882473E1,5.626644E2,7.482924E0,3.0804008E1,3.477864E2,4.1253864E1,8.742572E2,2.2378438E2,3.3035547E2,1.2799364E3,6.854779E2,7.6545E2,9.768261E2,2.2265561E2,2.2886075E2,4.3629975E0,5.2263393E0,1.8789604E1,6.149944E0,2.0871979E2,1.03037544E2],"tree_param":{"num_deleted":"0","num_feature":"12","num_nodes":"115","size_leaf_vector":"1"}},{"base_weights":[1.137646E-3,-7.54269E-2,1.5773107E-1,-1.2926341E-2,-2.379726E-1,7.6266536E-3,2.0864858E-1,-1.1710163E-1,1.3103949E-1,-3.754076E-1,1.16551094E-1,2.5680745E-1,-7.938476E-2,2.6924637E-1,9.814182E-2,-4.998394E-2,-2.3289688E-1,2.0523444E-1,-5.2280225E-2,-8.3763963E-1,-3.4891543E-1,-5.42714E-1,1.7611338E-1,-9.178395E-1,3.3351383E-1,2.3869157E-2,-3.402302E-1,1.512489E-1,3.5087708E-1,-5.4813284E-2,1.9880347E-1,-1.957651E-1,4.936255E-2,-1.3489465E-1,-4.3809885E-1,1.2895136E-1,8.211493E-1,9.064196E-1,-8.804297E-2,1.6344531E-1,-1.0427135E0,-2.9491222E-1,-5.664585E-1,3.0383369E-2,-1.1193378E0,1.0158232E-1,5.7771075E-1,7.581799E-1,-1.7893283E-1,-8.326645E-1,4.0535507E-1,-2.2153066E-1,1.3969597E-1,-6.953542E-1,-9.369476E-2,-3.583162E-1,1.9814183E-1,3.9691463E-1,-7.90384E-3,1.4891872E-1,-2.470151E-1,3.2499838E-1,-5.5989016E-2,6.895133E-2,-2.3609405E-2,8.7309955E-3,-5.343184E-2,-1.7443832E-2,2.6894068E-2,-4.76466E-2,1.2882714E-1,3.0189728E-2,-1.91061E-3,1.0688772E-1,4.2136032E-2,1.1658229E-1,-1.2701248E-1,1.052256E-1,-1.0947176E-2,9.052052E-2,-1.4545022E-1,-1.4060283E-1,-4.1517824E-2,-1.0254576E-2,-3.6853757E-2,-1.5515128E-1,-4.978213E-2,-1.5994628E-1,4.108913E-2,-1.5939824E-1,-2.1630526E-3,1.3935791E-2,-8.948062E-2,-4.4633597E-2,7.6785654E-2,1.3505317E-1,-4.8247E-3,4.7011256E-2,-1.7314743E-1,1.33793745E-2,6.671662E-2,-6.1434833E-4,-1.070562E-1,2.7637506E-2,-2.9301718E-2,3.9059992E-4,-9.8283544E-2,3.7735396E-3,-1.3424371E-1,3.9664545E-4,-9.7535424E-2,3.2644257E-2,-3.2742321E-3,3.7221592E-2,8.634209E-2,-2.779818E-2,5.595388E-2,2.2700423E-2,-6.97213E-2,-1.1918133E-1,-1.4248024E-2,1.1274978E-1,2.7786268E-2,-7.51841E-2,1.0244869E-2],"categories":[],"categories_nodes":[],"categories_segments":[],"categories_sizes":[],"default_left":[0,0,0,0,0,0,0,0,0,0,0,0,0,0,0,0,0,0,0,0,0,0,0,0,0,0,0,0,0,0,0,0,0,0,0,0,0,0,0,0,0,0,0,0,0,0,0,0,0,0,0,0,0,0,0,0,0,0,0,0,0,0,0,0,0,0,0,0,0,0,0,0,0,0,0,0,0,0,0,0,0,0,0,0,0,0,0,0,0,0,0,0,0,0,0,0,0,0,0,0,0,0,0,0,0,0,0,0,0,0,0,0,0,0,0,0,0,0,0,0,0,0,0,0,0],"id":6,"left_children":[1,3,5,7,9,11,13,15,17,19,21,23,25,27,29,31,33,35,37,39,41,43,45,47,49,51,53,55,57,59,61,63,65,67,69,71,73,75,77,79,81,83,85,87,89,91,93,95,-1,97,99,101,103,105,107,109,111,113,115,117,119,121,123,-1,-1,-1,-1,-1,-1,-1,-1,-1,-1,-1,-1,-1,-1,-1,-1,-1,-1,-1,-1,-1,-1,-1,-1,-1,-1,-1,-1,-1,-1,-1,-1,-1,-1,-1,-1,-1,-1,-1,-1,-1,-1,-1,-1,-1,-1,-1,-1,-1,-1,-1,-1,-1,-1,-1,-1,-1,-1,-1,-1,-1,-1],"loss_changes":[1.3313708E2,7.576409E1,2.7868332E1,8.08197E1,1.00960785E2,2.0068676E1,1.820684E1,2.4286465E1,3.0782383E1,1.7988098E1,2.2846254E1,2.1890623E1,1.8487486E1,1.6879814E1,1.4882246E1,2.8692638E1,2.3005795E1,7.557356E1,2.2455868E1,1.6636658E1,1.644011E1,1.5979625E1,1.5868649E1,2.3194359E1,1.9238482E1,1.40290365E1,1.6975632E1,1.7289837E1,1.7153755E1,1.5079018E1,1.8755106E1,2.8826754E1,2.615211E1,1.246541E1,2.5138687E1,3.673564E1,1.7111748E1,1.478194E1,1.5511261E1,1.872027E1,1.4624641E1,1.6031174E1,1.816172E1,1.6269255E1,1.2511028E1,1.7063953E1,1.652057E1,2.843871E0,0E0,1.6526924E1,1.5067654E1,2.8941559E1,1.9904345E1,1.6005245E1,1.9095373E1,1.3658199E1,1.9577097E1,1.028212E1,1.8402597E1,1.252029E1,1.9389702E1,1.4433716E1,2.1451292E1,0E0,0E0,0E0,0E0,0E0,0E0,0E0,0E0,0E0,0E0,0E0,0E0,0E0,0E0,0E0,0E0,0E0,0E0,0E0,0E0,0E0,0E0,0E0,0E0,0E0,0E0,0E0,0E0,0E0,0E0,0E0,0E0,0E0,0E0,0E0,0E0,0E0,0E0,0E0,0E0,0E0,0E0,0E0,0E0,0E0,0E0,0E0,0E0,0E0,0E0,0E0,0E0,0E0,0E0,0E0,0E0,0E0,0E0,0E0,0E0,0E0,0E0],"parents":[2147483647,0,0,1,1,2,2,3,3,4,4,5,5,6,6,7,7,8,8,9,9,10,10,11,11,12,12,13,13,14,14,15,15,16,16,17,17,18,18,19,19,20,20,21,21,22,22,23,23,24,24,25,25,26,26,27,27,28,28,29,29,30,30,31,31,32,32,33,33,34,34,35,35,36,36,37,37,38,38,39,39,40,40,41,41,42,42,43,43,44,44,45,45,46,46,47,47,49,49,50,50,51,51,52,52,53,53,54,54,55,55,56,56,57,57,58,58,59,59,60,60,61,61,62,62],"right_children":[2,4,6,8,10,12,14,16,18,20,22,24,26,28,30,32,34,36,38,40,42,44,46,48,50,52,54,56,58,60,62,64,66,68,70,72,74,76,78,80,82,84,86,88,90,92,94,96,-1,98,100,102,104,106,108,110,112,114,116,118,120,122,124,-1,-1,-1,-1,-1,-1,-1,-1,-1,-1,-1,-1,-1,-1,-1,-1,-1,-1,-1,-1,-1,-1,-1,-1,-1,-1,-1,-1,-1,-1,-1,-1,-1,-1,-1,-1,-1,-1,-1,-1,-1,-1,-1,-1,-1,-1,-1,-1,-1,-1,-1,-1,-1,-1,-1,-1,-1,-1,-1,-1,-1,-1],"split_conditions":[1.5E1,9E0,4E0,6E0,1.2E1,-8.283348E-1,9E0,4E0,1.1E1,-1.8026627E0,1.5652072E-2,-1.4812096E0,2.4E2,3E0,-3.324294E-1,3E0,2.33E2,1E1,-1.0545E0,-1.2245042E0,7.745179E-1,8.262296E-2,3.1E2,-1.6887568E0,5.5E1,2E0,2.94E2,5.6E1,3.1E2,-9.5261616E-1,2.21E2,-2.438838E0,3.19E2,2.09E2,1.2825229E0,3E0,4E0,3.1E2,1.6E1,1.88E2,9.652926E-1,3E0,2E0,2E0,2.6E2,3.21E2,9.2E1,-1.3106226E0,-1.7893283E-1,-1.4068421E0,4E0,7.079914E-1,1.7E1,-3.418154E-1,3.01E2,7E0,2.22E2,9.5622134E-1,6E0,3.1E2,-8.706042E-1,-2.3121278E0,1E1,6.895133E-2,-2.3609405E-2,8.7309955E-3,-5.343184E-2,-1.7443832E-2,2.6894068E-2,-4.76466E-2,1.2882714E-1,3.0189728E-2,-1.91061E-3,1.0688772E-1,4.2136032E-2,1.1658229E-1,-1.2701248E-1,1.052256E-1,-1.0947176E-2,9.052052E-2,-1.4545022E-1,-1.4060283E-1,-4.1517824E-2,-1.0254576E-2,-3.6853757E-2,-1.5515128E-1,-4.978213E-2,-1.5994628E-1,4.108913E-2,-1.5939824E-1,-2.1630526E-3,1.3935791E-2,-8.948062E-2,-4.4633597E-2,7.6785654E-2,1.3505317E-1,-4.8247E-3,4.7011256E-2,-1.7314743E-1,1.33793745E-2,6.671662E-2,-6.1434833E-4,-1.070562E-1,2.7637506E-2,-2.9301718E-2,3.9059992E-4,-9.8283544E-2,3.7735396E-3,-1.3424371E-1,3.9664545E-4,-9.7535424E-2,3.2644257E-2,-3.2742321E-3,3.7221592E-2,8.634209E-2,-2.779818E-2,5.595388E-2,2.2700423E-2,-6.97213E-2,-1.1918133E-1,-1.4248024E-2,1.1274978E-1,2.7786268E-2,-7.51841E-2,1.0244869E-2],"split_indices":[0,5,5,5,5,8,5,5,0,10,7,10,1,4,8,4,1,0,7,8,10,10,2,7,1,5,1,1,2,8,1,10,1,1,7,0,4,1,1,1,7,0,0,4,2,1,1,8,0,8,4,10,0,8,2,5,1,10,4,1,8,10,5,0,0,0,0,0,0,0,0,0,0,0,0,0,0,0,0,0,0,0,0,0,0,0,0,0,0,0,0,0,0,0,0,0,0,0,0,0,0,0,0,0,0,0,0,0,0,0,0,0,0,0,0,0,0,0,0,0,0,0,0,0,0],"split_type":[0,0,0,0,0,0,0,0,0,0,0,0,0,0,0,0,0,0,0,0,0,0,0,0,0,0,0,0,0,0,0,0,0,0,0,0,0,0,0,0,0,0,0,0,0,0,0,0,0,0,0,0,0,0,0,0,0,0,0,0,0,0,0,0,0,0,0,0,0,0,0,0,0,0,0,0,0,0,0,0,0,0,0,0,0,0,0,0,0,0,0,0,0,0,0,0,0,0,0,0,0,0,0,0,0,0,0,0,0,0,0,0,0,0,0,0,0,0,0,0,0,0,0,0,0],"sum_hessian":[1.1102479E4,7.4569883E3,3.64549E3,5.3867896E3,2.0701987E3,9.236695E2,2.7218206E3,3.125401E3,2.2613887E3,1.4918195E3,5.7837915E2,2.3855397E2,6.8511554E2,1.7569424E3,9.648782E2,1.9794791E3,1.1459219E3,1.6097538E3,6.5163495E2,7.9207085E1,1.4126124E3,4.7252552E1,5.311266E2,1.3950875E1,2.246031E2,4.9147638E2,1.9363913E2,7.1960455E2,1.0373378E3,3.8314536E2,5.8173285E2,8.018593E2,1.1776198E3,7.766565E2,3.6926532E2,1.4334283E3,1.7632547E2,2.255851E1,6.290764E2,1.3501485E1,6.57056E1,1.1335692E3,2.7904318E2,2.417385E1,2.3078703E1,4.490432E2,8.208341E1,4.8169966E0,9.133879E0,1.2418981E1,2.1218411E2,1.572986E2,3.341778E2,7.859943E1,1.150397E2,6.0081676E1,6.595229E2,9.1927344E2,1.1806434E2,1.8610312E2,1.9704225E2,3.888605E2,1.9287231E2,3.4235863E1,7.676235E2,1.1065303E3,7.108949E1,7.079062E2,6.875032E1,3.619454E2,7.319936E0,6.6066565E2,7.7276263E2,1.07833305E2,6.8492165E1,2.057118E1,1.9873286E0,1.0716389E1,6.1836005E2,9.559421E0,3.9420643E0,4.0827663E1,2.4877937E1,3.1442926E2,8.1913995E2,1.6769493E1,2.6227368E2,3.9691448E0,2.0204706E1,1.5796328E1,7.282376E0,4.3346942E2,1.5573779E1,1.2643483E1,6.9439926E1,2.3881197E0,2.4288769E0,5.2648377E0,7.154143E0,1.0489436E2,1.0728975E2,1.2627233E2,3.1026258E1,2.5423506E2,7.994273E1,2.3186855E1,5.541257E1,1.0496221E2,1.0077494E1,3.8481525E1,2.1600155E1,4.2367545E2,2.3584744E2,8.7475806E2,4.451539E1,8.0337364E1,3.772697E1,1.7104948E2,1.50536375E1,1.8593246E1,1.78449E2,2.0301477E1,3.6855902E2,3.507574E1,1.5779659E2],"tree_param":{"num_deleted":"0","num_feature":"12","num_nodes":"125","size_leaf_vector":"1"}},{"base_weights":[4.437992E-3,-6.1961636E-2,1.4034931E-1,-1.0798266E-3,-2.2266869E-1,-1.9637601E-2,1.9229549E-1,-1.2869917E-1,1.728507E-1,-3.4789848E-1,9.647678E-2,-5.7696956E-1,2.5764495E-2,2.4456392E-1,3.6436863E-2,-8.494906E-2,-3.2677257E-1,-3.27262E-1,1.9536845E-1,-4.1231892E-1,-1.2355297E-1,-2.8351814E-1,1.8898013E-1,-3.908785E-1,-1.7341046E-1,-4.6465418E-1,6.955823E-2,3.223585E-1,8.996686E-2,5.8747643E-1,4.5349034E-3,-1.8208513E-1,-1.4886806E-2,-1.10362E0,-2.793594E-1,3.829341E-1,-8.045299E-1,9.702731E-2,3.0982968E-1,-3.3319363E-1,-6.8823755E-1,-2.2765475E-3,-7.020236E-1,-4.6633285E-2,-9.004844E-1,2.333531E-1,-9.5395803E-1,-1.8009873E-1,-1.3516692E0,4.3153974E-1,-8.120157E-1,3.167442E-1,-3.144365E-2,4.6969425E-2,3.7534675E-1,-1.5520471E-1,2.4640653E-1,-1.1953863E-1,6.924277E-1,3.8409677E-1,-4.2726036E-2,-2.6012702E-2,2.8727684E-2,3.8308296E-3,-2.7777169E-2,-1.3556175E-1,1.4508457E-1,-2.3369476E-2,-9.737479E-2,-1.3835268E-1,5.4531354E-2,-1.6925687E-1,-3.5230707E-2,3.3785667E-2,-3.612271E-3,1.4493237E-2,6.070992E-2,-3.1394362E-2,-1.481238E-1,-9.649749E-2,-4.3266624E-2,3.0743156E-2,-1.9304281E-2,7.463758E-2,-8.6259045E-2,-1.3042983E-1,1.2489077E-2,-1.8211846E-1,-2.2063434E-2,-6.582587E-2,2.6049776E-2,4.180074E-2,-1.3671699E-1,-5.0226655E-2,3.9355673E-2,2.2563754E-2,-1.7285432E-1,-1.3666353E-1,7.640407E-2,-3.9696373E-2,-1.5574059E-1,-3.974191E-3,5.4912843E-2,2.1135975E-2,-1.3879492E-2,-1.2715665E-2,3.6359698E-2,3.8977608E-2,-6.159581E-2,-9.217084E-3,-1.4305739E-1,3.1386416E-2,-4.3004554E-2,7.8992836E-2,-1.1655529E-1,4.7556587E-2,-1.4412479E-1,-9.564812E-3,4.502296E-2],"categories":[],"categories_nodes":[],"categories_segments":[],"categories_sizes":[],"default_left":[0,0,0,0,0,0,0,0,0,0,0,0,0,0,0,0,0,0,0,0,0,0,0,0,0,0,0,0,0,0,0,0,0,0,0,0,0,0,0,0,0,0,0,0,0,0,0,0,0,0,0,0,0,0,0,0,0,0,0,0,0,0,0,0,0,0,0,0,0,0,0,0,0,0,0,0,0,0,0,0,0,0,0,0,0,0,0,0,0,0,0,0,0,0,0,0,0,0,0,0,0,0,0,0,0,0,0,0,0,0,0,0,0,0,0,0,0,0,0],"id":7,"left_children":[1,3,5,7,9,11,13,15,17,19,21,23,25,27,29,31,33,35,37,39,41,43,45,47,-1,49,51,53,55,57,59,61,63,65,67,69,71,73,75,77,79,81,83,85,87,89,91,93,95,97,99,101,103,105,107,109,111,-1,113,115,117,-1,-1,-1,-1,-1,-1,-1,-1,-1,-1,-1,-1,-1,-1,-1,-1,-1,-1,-1,-1,-1,-1,-1,-1,-1,-1,-1,-1,-1,-1,-1,-1,-1,-1,-1,-1,-1,-1,-1,-1,-1,-1,-1,-1,-1,-1,-1,-1,-1,-1,-1,-1,-1,-1,-1,-1,-1,-1],"loss_changes":[1.0087456E2,7.347175E1,3.0492798E1,1.2093127E2,8.249186E1,2.2791426E1,2.2553001E1,2.7203495E1,2.602948E1,2.1367172E1,2.051875E1,1.3931559E1,1.7928682E1,2.491246E1,1.2244902E1,1.7523275E1,2.0618793E1,3.410727E1,2.4812378E1,2.4898026E1,2.3292576E1,1.6674969E1,2.3999504E1,1.1854282E1,0E0,2.1656057E1,1.9129858E1,2.0108322E1,2.6718134E1,7.9605007E0,1.1848361E1,3.9599552E1,2.0947897E1,2.2786667E1,1.6794521E1,1.2444685E1,2.3483341E1,3.812453E1,4.9884262E1,1.9344719E1,1.7657204E1,1.6336123E1,1.4026539E1,1.8219433E1,1.9427013E1,1.1113668E1,1.0615986E1,9.464869E0,6.6874332E0,1.2864737E1,1.4748394E1,1.8432678E1,1.4224173E1,1.2379381E1,1.678267E1,2.170048E1,1.9530184E1,0E0,7.5571117E0,1.2896098E1,1.5368647E1,0E0,0E0,0E0,0E0,0E0,0E0,0E0,0E0,0E0,0E0,0E0,0E0,0E0,0E0,0E0,0E0,0E0,0E0,0E0,0E0,0E0,0E0,0E0,0E0,0E0,0E0,0E0,0E0,0E0,0E0,0E0,0E0,0E0,0E0,0E0,0E0,0E0,0E0,0E0,0E0,0E0,0E0,0E0,0E0,0E0,0E0,0E0,0E0,0E0,0E0,0E0,0E0,0E0,0E0,0E0,0E0,0E0,0E0],"parents":[2147483647,0,0,1,1,2,2,3,3,4,4,5,5,6,6,7,7,8,8,9,9,10,10,11,11,12,12,13,13,14,14,15,15,16,16,17,17,18,18,19,19,20,20,21,21,22,22,23,23,25,25,26,26,27,27,28,28,29,29,30,30,31,31,32,32,33,33,34,34,35,35,36,36,37,37,38,38,39,39,40,40,41,41,42,42,43,43,44,44,45,45,46,46,47,47,48,48,49,49,50,50,51,51,52,52,53,53,54,54,55,55,56,56,58,58,59,59,60,60],"right_children":[2,4,6,8,10,12,14,16,18,20,22,24,26,28,30,32,34,36,38,40,42,44,46,48,-1,50,52,54,56,58,60,62,64,66,68,70,72,74,76,78,80,82,84,86,88,90,92,94,96,98,100,102,104,106,108,110,112,-1,114,116,118,-1,-1,-1,-1,-1,-1,-1,-1,-1,-1,-1,-1,-1,-1,-1,-1,-1,-1,-1,-1,-1,-1,-1,-1,-1,-1,-1,-1,-1,-1,-1,-1,-1,-1,-1,-1,-1,-1,-1,-1,-1,-1,-1,-1,-1,-1,-1,-1,-1,-1,-1,-1,-1,-1,-1,-1,-1,-1],"split_conditions":[1.5E1,9E0,4E0,6E0,1.2E1,-1.4812096E0,1.7E1,2.66E2,-1.4068421E0,4.8456973E-1,8.2E1,-1.6325239E0,5.6E1,2.15E2,4.4E1,3E0,-1.5767459E0,9.5E1,-2.2181965E-1,2.59E2,7.793108E-1,2.39E2,3.23E2,8.3606637E-1,-1.7341046E-1,9.4E1,-7.596903E-1,5.6E1,3E0,-2.1349227E0,-1.435716E0,8.3606637E-1,9.496305E-1,2.9637249E0,3.19E2,7E1,2.03E2,4E0,7E0,4.3193015E-1,2.924971E-1,-6.471107E-1,2.4E1,-5.595345E-1,3E0,-1.1387674E0,1E0,3E0,8.2E1,-6.27494E-1,5.838996E-1,3.3634835E-1,1.29E2,3.1190008E-2,2.2734005E0,9.303211E-1,1.6E1,-1.1953863E-1,8.74322E-1,1.6323631E0,1.4719629E0,-2.6012702E-2,2.8727684E-2,3.8308296E-3,-2.7777169E-2,-1.3556175E-1,1.4508457E-1,-2.3369476E-2,-9.737479E-2,-1.3835268E-1,5.4531354E-2,-1.6925687E-1,-3.5230707E-2,3.3785667E-2,-3.612271E-3,1.4493237E-2,6.070992E-2,-3.1394362E-2,-1.481238E-1,-9.649749E-2,-4.3266624E-2,3.0743156E-2,-1.9304281E-2,7.463758E-2,-8.6259045E-2,-1.3042983E-1,1.2489077E-2,-1.8211846E-1,-2.2063434E-2,-6.582587E-2,2.6049776E-2,4.180074E-2,-1.3671699E-1,-5.0226655E-2,3.9355673E-2,2.2563754E-2,-1.7285432E-1,-1.3666353E-1,7.640407E-2,-3.9696373E-2,-1.5574059E-1,-3.974191E-3,5.4912843E-2,2.1135975E-2,-1.3879492E-2,-1.2715665E-2,3.6359698E-2,3.8977608E-2,-6.159581E-2,-9.217084E-3,-1.4305739E-1,3.1386416E-2,-4.3004554E-2,7.8992836E-2,-1.1655529E-1,4.7556587E-2,-1.4412479E-1,-9.564812E-3,4.502296E-2],"split_indices":[0,5,5,5,5,10,0,1,8,3,1,10,1,1,2,4,10,2,3,2,10,2,1,3,0,2,8,1,4,10,10,3,8,3,2,1,2,0,0,3,10,8,2,10,4,3,4,5,1,8,10,10,1,3,8,10,0,0,10,8,8,0,0,0,0,0,0,0,0,0,0,0,0,0,0,0,0,0,0,0,0,0,0,0,0,0,0,0,0,0,0,0,0,0,0,0,0,0,0,0,0,0,0,0,0,0,0,0,0,0,0,0,0,0,0,0,0,0,0],"split_type":[0,0,0,0,0,0,0,0,0,0,0,0,0,0,0,0,0,0,0,0,0,0,0,0,0,0,0,0,0,0,0,0,0,0,0,0,0,0,0,0,0,0,0,0,0,0,0,0,0,0,0,0,0,0,0,0,0,0,0,0,0,0,0,0,0,0,0,0,0,0,0,0,0,0,0,0,0,0,0,0,0,0,0,0,0,0,0,0,0,0,0,0,0,0,0,0,0,0,0,0,0,0,0,0,0,0,0,0,0,0,0,0,0,0,0,0,0,0,0],"sum_hessian":[1.117594E4,7.5082974E3,3.6676428E3,5.4461133E3,2.0621838E3,8.991156E2,2.7685273E3,3.1414062E3,2.3047073E3,1.4809731E3,5.8121063E2,6.684568E1,8.3226996E2,2.0728213E3,6.957061E2,2.5742412E3,5.671649E2,9.87162E1,2.205991E3,1.1499337E3,3.3103937E2,1.1338225E2,4.6782837E2,5.8737316E1,8.108366E0,6.7440125E1,7.6482983E2,1.3782092E3,6.9461194E2,3.7120045E1,6.5858606E2,1.078032E3,1.4962094E3,3.1343107E1,5.3582184E2,3.9755657E1,5.896055E1,1.1875427E3,1.0184483E3,8.953744E2,2.5455934E2,2.7449533E2,5.6544037E1,8.270367E1,3.0678577E1,4.5111047E2,1.6717901E1,4.914357E1,9.593744E0,1.8770315E1,4.866981E1,2.2124124E2,5.4358856E2,2.2269766E2,1.1555116E3,2.7057532E2,4.2403662E2,1.4860369E0,3.5634007E1,7.213429E1,5.864518E2,9.247221E2,1.5330986E2,1.2451133E3,2.5109604E2,2.8955925E1,2.3871813E0,5.0401324E2,3.1808558E1,2.7137313E0,3.7041924E1,1.8968657E1,3.999189E1,4.2226028E2,7.652825E2,6.560312E2,3.6241714E2,8.8186115E2,1.3513282E1,1.2088599E2,1.3367336E2,1.0439652E2,1.700988E2,5.2787237E0,5.1265312E1,9.133077E0,7.3570595E1,1.2317949E1,1.8360628E1,1.2641126E1,4.3846936E2,3.8669775E0,1.28509245E1,3.15496E1,1.759397E1,1.927595E0,7.6661496E0,2.4438314E0,1.6326483E1,3.224663E1,1.642318E1,8.763494E1,1.336063E2,1.6635767E2,3.772309E2,1.4406758E2,7.863009E1,1.1395315E3,1.5980097E1,2.5885397E2,1.1721335E1,3.8607245E2,3.7964176E1,3.4403473E1,1.2305341E0,6.939627E1,2.7380223E0,5.303239E2,5.6127846E1],"tree_param":{"num_deleted":"0","num_feature":"12","num_nodes":"119","size_leaf_vector":"1"}},{"base_weights":[6.932782E-3,-3.3115587E-1,1.508386E-1,-5.1238257E-1,-1.9917297E-1,6.377503E-2,3.2067683E-1,-1.0570475E0,-4.7801116E-1,6.4341895E-2,-2.3801813E-1,1.2642291E-1,-1.03926055E-1,4.532079E-2,4.112143E-1,-1.5293734E0,-5.7808834E-1,3.879408E-1,-4.9767864E-1,2.7556568E-1,-2.2826704E-1,-3.0382457E-1,-4.976966E-2,6.9445126E-2,4.8015404E-1,-1.7225508E-1,1.6286576E-1,-1.9630218E-2,3.2981366E-1,3.3079222E-1,6.237607E-1,-4.5057055E-1,-1.6355675E-1,-7.2172564E-1,9.435057E-1,6.826322E-1,-8.080311E-1,-6.2470615E-1,-4.034182E-1,1.299802E-1,1.0898395E0,-7.1698326E-1,1.2275229E-1,2.3465621E-1,-3.400762E-1,5.244434E-2,-4.7324473E-1,2.173417E-1,-4.608941E-2,7.267044E-2,5.868806E-1,-2.3936799E-1,1.4659254E-1,-1.939E-1,3.5707858E-1,6.7744227E-3,-1.1657614E0,-1.4556834E-1,3.8292375E-1,7.980578E-2,3.7934127E-1,7.147365E-1,2.1685381E-1,-1.1974328E-1,8.453425E-2,3.531248E-2,-9.51282E-2,1.2736243E-1,3.7799664E-2,-1.22977845E-1,9.473498E-2,8.873766E-2,-1.4789319E-1,-4.1487645E-2,-7.624333E-2,-3.5401378E-2,-9.5846124E-2,2.9435417E-2,-1.2974045E-1,1.4271575E-1,-4.5655645E-2,5.3725522E-2,-1.0852634E-1,4.774391E-2,-5.739805E-2,4.0816735E-2,-1.1071701E-1,-3.7487056E-2,1.7888116E-2,-1.013737E-2,3.0709147E-2,-6.5246723E-3,-9.9829495E-2,-1.9747461E-3,2.698403E-2,-8.504257E-3,4.9369585E-2,3.740519E-2,-7.317372E-2,7.141367E-2,3.1122122E-2,8.587136E-3,-2.8426586E-2,-1.20448254E-1,2.0426093E-2,-3.6818396E-2,5.532288E-2,4.440948E-2,-4.165326E-2,1.0147193E-2,-3.3118393E-2,1.3901251E-2,-1.8581443E-1,4.696427E-2,-2.9679373E-2,3.692943E-2,-1.5841484E-2,4.5666806E-2,1.998698E-2,4.2362895E-2,8.53326E-2,-1.541398E-1,2.7654786E-2],"categories":[],"categories_nodes":[],"categories_segments":[],"categories_sizes":[],"default_left":[0,0,0,0,0,0,0,0,0,0,0,0,0,0,0,0,0,0,0,0,0,0,0,0,0,0,0,0,0,0,0,0,0,0,0,0,0,0,0,0,0,0,0,0,0,0,0,0,0,0,0,0,0,0,0,0,0,0,0,0,0,0,0,0,0,0,0,0,0,0,0,0,0,0,0,0,0,0,0,0,0,0,0,0,0,0,0,0,0,0,0,0,0,0,0,0,0,0,0,0,0,0,0,0,0,0,0,0,0,0,0,0,0,0,0,0,0,0,0,0,0,0,0],"id":8,"left_children":[1,3,5,7,9,11,13,15,17,19,21,23,25,27,29,31,33,35,37,39,41,43,45,47,49,51,53,55,57,59,61,63,-1,65,67,69,71,73,75,77,79,81,83,85,87,89,91,93,95,97,99,101,103,105,107,109,111,-1,113,115,117,119,121,-1,-1,-1,-1,-1,-1,-1,-1,-1,-1,-1,-1,-1,-1,-1,-1,-1,-1,-1,-1,-1,-1,-1,-1,-1,-1,-1,-1,-1,-1,-1,-1,-1,-1,-1,-1,-1,-1,-1,-1,-1,-1,-1,-1,-1,-1,-1,-1,-1,-1,-1,-1,-1,-1,-1,-1,-1,-1,-1,-1],"loss_changes":[5.426044E2,7.9541595E1,1.1565285E2,2.5750458E1,1.9753586E1,5.436026E1,6.606781E1,1.7762543E1,2.2692108E1,1.5422787E1,2.0805931E1,7.587942E1,2.56848E1,1.2147741E1,3.3891876E1,3.9477997E0,9.976865E0,1.1089418E1,1.5219818E1,1.7021942E1,1.8055016E1,2.4387077E1,1.892097E1,5.5460003E1,2.2674278E1,2.4021896E1,1.9988157E1,1.6225283E1,1.214389E1,1.763031E1,2.0074356E1,5.89496E0,0E0,1.0065037E1,2.843864E-1,1.3583623E1,8.556562E0,1.5537476E1,2.0077972E1,2.9465826E1,1.2035824E1,2.0873077E1,1.5548103E1,1.88759E1,2.1140503E1,1.3841028E1,1.8139652E1,1.7722298E1,3.836705E1,2.6834394E1,1.4293488E1,1.3552303E1,1.5481055E1,1.3482818E1,1.2739395E1,1.682937E1,1.1165421E1,0E0,7.1800823E0,1.6345911E1,1.6758957E1,1.763916E1,1.1057191E1,0E0,0E0,0E0,0E0,0E0,0E0,0E0,0E0,0E0,0E0,0E0,0E0,0E0,0E0,0E0,0E0,0E0,0E0,0E0,0E0,0E0,0E0,0E0,0E0,0E0,0E0,0E0,0E0,0E0,0E0,0E0,0E0,0E0,0E0,0E0,0E0,0E0,0E0,0E0,0E0,0E0,0E0,0E0,0E0,0E0,0E0,0E0,0E0,0E0,0E0,0E0,0E0,0E0,0E0,0E0,0E0,0E0,0E0,0E0,0E0],"parents":[2147483647,0,0,1,1,2,2,3,3,4,4,5,5,6,6,7,7,8,8,9,9,10,10,11,11,12,12,13,13,14,14,15,15,16,16,17,17,18,18,19,19,20,20,21,21,22,22,23,23,24,24,25,25,26,26,27,27,28,28,29,29,30,30,31,31,33,33,34,34,35,35,36,36,37,37,38,38,39,39,40,40,41,41,42,42,43,43,44,44,45,45,46,46,47,47,48,48,49,49,50,50,51,51,52,52,53,53,54,54,55,55,56,56,58,58,59,59,60,60,61,61,62,62],"right_children":[2,4,6,8,10,12,14,16,18,20,22,24,26,28,30,32,34,36,38,40,42,44,46,48,50,52,54,56,58,60,62,64,-1,66,68,70,72,74,76,78,80,82,84,86,88,90,92,94,96,98,100,102,104,106,108,110,112,-1,114,116,118,120,122,-1,-1,-1,-1,-1,-1,-1,-1,-1,-1,-1,-1,-1,-1,-1,-1,-1,-1,-1,-1,-1,-1,-1,-1,-1,-1,-1,-1,-1,-1,-1,-1,-1,-1,-1,-1,-1,-1,-1,-1,-1,-1,-1,-1,-1,-1,-1,-1,-1,-1,-1,-1,-1,-1,-1,-1,-1,-1,-1,-1],"split_conditions":[1.1E1,8E0,1.5E1,-1.6325239E0,-1.1340739E0,1.2E1,1.4E1,7E0,2E0,2.04E2,7.695034E-1,1E1,7.9340667E-1,9.820988E-1,2E1,2E0,1.2E1,4.8455492E-1,-3.2370272E-1,8.9172035E-1,-1.2850095E-1,2E0,7.427392E-1,3E0,1.4E1,7.8185165E-1,1.5E1,7.90219E-1,2E0,3E0,1.7E1,1.3816725E-1,-1.6355675E-1,-3.930516E0,2.4E1,-9.2892987E-1,3.4E1,-8.5349476E-1,1.9924394E0,2.7807346E-1,1.4209493E-2,-1.3349735E0,8.686721E-1,6.237414E-1,1.7855711E0,-1.03187405E-1,-2.9787847E-1,1E0,1.8822453E0,5.032483E-1,1.1E1,2E0,-1.3841369E0,4.3076366E-2,1.2471192E0,2.52E2,-7.504504E-1,-1.4556834E-1,9.615031E-1,-3.418154E-1,9E0,5E0,-9.9273497E-1,-1.1974328E-1,8.453425E-2,3.531248E-2,-9.51282E-2,1.2736243E-1,3.7799664E-2,-1.22977845E-1,9.473498E-2,8.873766E-2,-1.4789319E-1,-4.1487645E-2,-7.624333E-2,-3.5401378E-2,-9.5846124E-2,2.9435417E-2,-1.2974045E-1,1.4271575E-1,-4.5655645E-2,5.3725522E-2,-1.0852634E-1,4.774391E-2,-5.739805E-2,4.0816735E-2,-1.1071701E-1,-3.7487056E-2,1.7888116E-2,-1.013737E-2,3.0709147E-2,-6.5246723E-3,-9.9829495E-2,-1.9747461E-3,2.698403E-2,-8.504257E-3,4.9369585E-2,3.740519E-2,-7.317372E-2,7.141367E-2,3.1122122E-2,8.587136E-3,-2.8426586E-2,-1.20448254E-1,2.0426093E-2,-3.6818396E-2,5.532288E-2,4.440948E-2,-4.165326E-2,1.0147193E-2,-3.3118393E-2,1.3901251E-2,-1.8581443E-1,4.696427E-2,-2.9679373E-2,3.692943E-2,-1.5841484E-2,4.5666806E-2,1.998698E-2,4.2362895E-2,8.53326E-2,-1.541398E-1,2.7654786E-2],"split_indices":[6,6,0,10,10,0,6,6,6,2,10,0,10,3,6,5,5,9,3,9,8,0,8,0,6,9,6,3,5,5,0,3,0,10,2,8,2,3,3,9,3,8,8,10,8,9,9,0,9,3,0,5,8,3,8,2,9,0,9,8,5,5,3,0,0,0,0,0,0,0,0,0,0,0,0,0,0,0,0,0,0,0,0,0,0,0,0,0,0,0,0,0,0,0,0,0,0,0,0,0,0,0,0,0,0,0,0,0,0,0,0,0,0,0,0,0,0,0,0,0,0,0,0],"split_type":[0,0,0,0,0,0,0,0,0,0,0,0,0,0,0,0,0,0,0,0,0,0,0,0,0,0,0,0,0,0,0,0,0,0,0,0,0,0,0,0,0,0,0,0,0,0,0,0,0,0,0,0,0,0,0,0,0,0,0,0,0,0,0,0,0,0,0,0,0,0,0,0,0,0,0,0,0,0,0,0,0,0,0,0,0,0,0,0,0,0,0,0,0,0,0,0,0,0,0,0,0,0,0,0,0,0,0,0,0,0,0,0,0,0,0,0,0,0,0,0,0,0,0],"sum_hessian":[1.1150529E4,3.328749E3,7.82178E3,1.4014818E3,1.9272673E3,5.171902E3,2.6498777E3,8.142534E1,1.3200564E3,2.4751782E2,1.6797495E3,3.765482E3,1.4064202E3,6.560626E2,1.9938151E3,3.9892345E1,4.1532993E1,2.8899418E1,1.291157E3,1.4378377E2,1.0373404E2,1.2441984E3,4.3555118E2,3.2441257E3,5.213562E2,1.119942E3,2.864781E2,5.348784E2,1.21184166E2,1.4483524E3,5.454627E2,4.0448165E0,3.5847527E1,3.8430832E1,3.1021626E0,2.3530619E1,5.3687987E0,5.475877E2,7.4356934E2,1.2295929E2,2.0824482E1,4.292624E1,6.0807804E1,7.813345E1,1.166065E3,3.515692E2,8.3981964E1,1.4224089E3,1.8217168E3,1.0855864E2,4.1279758E2,9.254064E2,1.9453569E2,1.0098039E2,1.8549771E2,5.2380505E2,1.1073364E1,2.7376866E0,1.1844648E2,2.3517902E2,1.2131733E3,4.4517453E2,1.0028818E2,2.614194E0,1.4306225E0,6.6685276E0,3.1762302E1,1.1681036E0,1.934059E0,2.4178212E0,2.1112797E1,1.4306908E0,3.938108E0,2.1858382E2,3.2900388E2,6.842977E2,5.92716E1,1.1097363E2,1.1985658E1,1.7158728E1,3.6657557E0,9.639275E0,3.3286964E1,4.0503414E1,2.0304388E1,6.9803055E1,8.330398E0,1.0930568E3,7.300814E1,2.1955206E2,1.3201717E2,4.7891464E1,3.6090496E1,2.579778E2,1.164431E3,1.6998883E3,1.2182858E2,7.93603E1,2.9198343E1,2.813321E2,1.3146547E2,1.12141594E2,8.132648E2,7.1494503E0,1.8738623E2,8.229135E1,1.8689035E1,1.671253E2,1.83724E1,4.097039E2,1.1410119E2,4.1160407E0,6.957324E0,1.0531887E2,1.3127606E1,1.0591709E2,1.2926192E2,8.4678467E2,3.6638873E2,1.4488979E2,3.0028476E2,2.478018E0,9.781016E1],"tree_param":{"num_deleted":"0","num_feature":"12","num_nodes":"123","size_leaf_vector":"1"}},{"base_weights":[8.191024E-3,-2.8747413E-1,1.7410028E-1,-4.128295E-1,-1.5719348E-1,8.459643E-2,3.4651372E-1,-3.473781E-1,-6.1553526E-1,-1.9912735E-1,6.3247606E-2,1.3990161E-1,-1.1088934E-1,2.6644224E-1,6.190753E-1,-4.9852875E-1,-2.701236E-1,-7.549212E-1,-2.7321774E-1,3.3274454E-1,-2.1549392E-1,1.4335428E-1,-5.072302E-1,4.8980284E-2,3.6105666E-1,-8.227662E-2,-5.325792E-1,-4.325867E-1,2.9417092E-1,6.8539006E-1,-3.1623546E-2,-8.0943507E-1,-2.8716847E-1,-6.2533915E-1,-2.1942623E-1,-7.96424E-1,7.2834307E-1,5.2483845E-1,-3.9484262E-1,-9.232809E-2,1.5148894E0,7.3018396E-1,-2.2759704E-1,4.278028E-1,-3.763765E-2,-1.7384394E-1,-1.3009429E0,1.9469635E-1,-9.6023075E-2,4.4510773E-1,5.7855837E-2,8.4445703E-1,-9.5777094E-2,-3.4479238E-2,-1.2148881E0,-6.1942685E-1,4.781996E-1,3.604153E-2,3.3759123E-1,-1.5520675E-1,6.994293E-1,1.5305471E-1,-1.2815511E0,-8.8138476E-2,1.9432586E-3,-1.5547146E-3,-5.2483357E-2,-8.0190055E-2,2.415207E-2,5.806362E-3,-2.9985098E-2,-1.4557382E-1,-7.3846914E-2,1.7560735E-1,-1.3256513E-1,7.6473825E-2,-1.1042839E-1,-2.9316703E-2,-1.1809907E-1,-9.0681784E-2,5.3803325E-2,2.2682881E-2,1.749926E-1,1.687633E-1,-1.3423154E-2,-2.1821836E-2,-1.0085078E-1,5.0540306E-2,-1.4687137E-1,-1.1508926E-1,2.023935E-3,3.7453234E-2,-6.160295E-2,-1.6996583E-1,8.503835E-2,2.5064474E-2,-8.293417E-3,-3.485363E-3,-2.7637312E-2,6.173573E-2,3.684526E-2,-3.6407933E-2,4.1785248E-2,1.2803678E-1,2.3325995E-2,-7.470157E-2,-7.1648173E-3,-5.5385094E-2,5.3358056E-2,9.853601E-2,-1.3507669E-1,-1.55202E-1,-2.2997497E-2,8.238399E-2,-1.3076578E-1,1.3908157E-2,-5.109277E-2,1.9186346E-2,4.1540276E-2,9.001364E-2,6.1944913E-2,-1.2283414E-2,8.522467E-2,3.5356984E-2,-1.8751693E-1],"categories":[],"categories_nodes":[],"categories_segments":[],"categories_sizes":[],"default_left":[0,0,0,0,0,0,0,0,0,0,0,0,0,0,0,0,0,0,0,0,0,0,0,0,0,0,0,0,0,0,0,0,0,0,0,0,0,0,0,0,0,0,0,0,0,0,0,0,0,0,0,0,0,0,0,0,0,0,0,0,0,0,0,0,0,0,0,0,0,0,0,0,0,0,0,0,0,0,0,0,0,0,0,0,0,0,0,0,0,0,0,0,0,0,0,0,0,0,0,0,0,0,0,0,0,0,0,0,0,0,0,0,0,0,0,0,0,0,0,0,0,0,0,0,0],"id":9,"left_children":[1,3,5,7,9,11,13,15,17,19,21,23,25,27,29,31,33,35,37,39,41,43,45,47,49,51,53,55,57,59,61,63,65,67,69,71,73,75,77,79,81,83,85,87,89,91,93,95,97,99,101,103,105,107,109,111,113,115,117,-1,119,121,123,-1,-1,-1,-1,-1,-1,-1,-1,-1,-1,-1,-1,-1,-1,-1,-1,-1,-1,-1,-1,-1,-1,-1,-1,-1,-1,-1,-1,-1,-1,-1,-1,-1,-1,-1,-1,-1,-1,-1,-1,-1,-1,-1,-1,-1,-1,-1,-1,-1,-1,-1,-1,-1,-1,-1,-1,-1,-1,-1,-1,-1,-1],"loss_changes":[5.449568E2,6.514963E1,1.09785416E2,2.6778076E1,1.8128403E1,5.067472E1,5.290027E1,1.7850174E1,2.3425247E1,1.4406746E1,1.4421044E1,7.343302E1,1.2430532E1,3.658914E1,2.3812973E1,3.3922714E1,1.8257072E1,2.2211609E1,1.4269693E1,2.5040741E1,1.845887E1,1.4230223E1,1.0062013E1,5.4739048E1,2.7091629E1,1.2208868E1,2.2222383E1,1.2578615E1,2.0273712E1,1.6804321E1,1.2187742E1,1.2528687E1,2.0066114E1,1.9636475E1,1.9999886E1,1.2004623E1,2.3620892E1,8.500425E0,9.748388E0,1.9685196E1,3.5881767E0,1.7138191E1,1.1342827E1,1.6554733E1,1.0954211E1,7.1497455E0,1.1177721E1,2.0090126E1,1.4317906E1,1.0770996E1,3.5407402E1,3.4367971E0,1.4974084E1,1.1771197E1,9.586792E0,2.1553587E1,9.009386E0,1.4822274E1,1.7487183E1,0E0,7.4361267E0,9.007907E0,7.257633E0,0E0,0E0,0E0,0E0,0E0,0E0,0E0,0E0,0E0,0E0,0E0,0E0,0E0,0E0,0E0,0E0,0E0,0E0,0E0,0E0,0E0,0E0,0E0,0E0,0E0,0E0,0E0,0E0,0E0,0E0,0E0,0E0,0E0,0E0,0E0,0E0,0E0,0E0,0E0,0E0,0E0,0E0,0E0,0E0,0E0,0E0,0E0,0E0,0E0,0E0,0E0,0E0,0E0,0E0,0E0,0E0,0E0,0E0,0E0,0E0,0E0,0E0],"parents":[2147483647,0,0,1,1,2,2,3,3,4,4,5,5,6,6,7,7,8,8,9,9,10,10,11,11,12,12,13,13,14,14,15,15,16,16,17,17,18,18,19,19,20,20,21,21,22,22,23,23,24,24,25,25,26,26,27,27,28,28,29,29,30,30,31,31,32,32,33,33,34,34,35,35,36,36,37,37,38,38,39,39,40,40,41,41,42,42,43,43,44,44,45,45,46,46,47,47,48,48,49,49,50,50,51,51,52,52,53,53,54,54,55,55,56,56,57,57,58,58,60,60,61,61,62,62],"right_children":[2,4,6,8,10,12,14,16,18,20,22,24,26,28,30,32,34,36,38,40,42,44,46,48,50,52,54,56,58,60,62,64,66,68,70,72,74,76,78,80,82,84,86,88,90,92,94,96,98,100,102,104,106,108,110,112,114,116,118,-1,120,122,124,-1,-1,-1,-1,-1,-1,-1,-1,-1,-1,-1,-1,-1,-1,-1,-1,-1,-1,-1,-1,-1,-1,-1,-1,-1,-1,-1,-1,-1,-1,-1,-1,-1,-1,-1,-1,-1,-1,-1,-1,-1,-1,-1,-1,-1,-1,-1,-1,-1,-1,-1,-1,-1,-1,-1,-1,-1,-1,-1,-1,-1,-1],"split_conditions":[1.2E1,9E0,1.5E1,2.59E2,9.5153385E-1,1.3E1,2E1,-4.5275465E-1,5E0,1E0,6E0,6E0,2.1E1,-1.4194806E0,1.5967934E0,3E0,-1.117025E0,3.0146663E0,1E0,1.0196508E0,2.1E1,1.3709526E0,2.42E2,3E0,1.2E1,-3.930516E0,1.99E2,6E0,8.2E1,-1.0997123E0,6E0,1.6E1,1.19E2,8.5745955E-1,-6.166973E-1,1E0,-9.1678864E-1,1.0756739E0,3.12E2,2.83E2,2.75E2,-4.1129613E-1,7.90219E-1,3.25E2,1.5067967E0,1.68E2,3.25E2,1.2300143E0,6.926877E-1,2E0,3.803594E-1,1.46E2,-2.033157E0,6.170397E-1,-3.1240017E0,4.272823E-2,4.704093E-1,2.64E2,1.5E1,-1.5520675E-1,9.5E1,2.8618417E0,-1.8026627E0,-8.8138476E-2,1.9432586E-3,-1.5547146E-3,-5.2483357E-2,-8.0190055E-2,2.415207E-2,5.806362E-3,-2.9985098E-2,-1.4557382E-1,-7.3846914E-2,1.7560735E-1,-1.3256513E-1,7.6473825E-2,-1.1042839E-1,-2.9316703E-2,-1.1809907E-1,-9.0681784E-2,5.3803325E-2,2.2682881E-2,1.749926E-1,1.687633E-1,-1.3423154E-2,-2.1821836E-2,-1.0085078E-1,5.0540306E-2,-1.4687137E-1,-1.1508926E-1,2.023935E-3,3.7453234E-2,-6.160295E-2,-1.6996583E-1,8.503835E-2,2.5064474E-2,-8.293417E-3,-3.485363E-3,-2.7637312E-2,6.173573E-2,3.684526E-2,-3.6407933E-2,4.1785248E-2,1.2803678E-1,2.3325995E-2,-7.470157E-2,-7.1648173E-3,-5.5385094E-2,5.3358056E-2,9.853601E-2,-1.3507669E-1,-1.55202E-1,-2.2997497E-2,8.238399E-2,-1.3076578E-1,1.3908157E-2,-5.109277E-2,1.9186346E-2,4.1540276E-2,9.001364E-2,6.1944913E-2,-1.2283414E-2,8.522467E-2,3.5356984E-2,-1.8751693E-1],"split_indices":[6,6,0,1,3,0,6,3,4,0,4,0,6,8,3,4,8,3,0,8,1,3,2,0,0,10,1,4,1,3,4,0,2,10,8,0,8,8,2,2,1,10,3,2,3,1,2,3,10,4,10,2,10,10,10,10,10,2,6,0,2,3,10,0,0,0,0,0,0,0,0,0,0,0,0,0,0,0,0,0,0,0,0,0,0,0,0,0,0,0,0,0,0,0,0,0,0,0,0,0,0,0,0,0,0,0,0,0,0,0,0,0,0,0,0,0,0,0,0,0,0,0,0,0,0],"split_type":[0,0,0,0,0,0,0,0,0,0,0,0,0,0,0,0,0,0,0,0,0,0,0,0,0,0,0,0,0,0,0,0,0,0,0,0,0,0,0,0,0,0,0,0,0,0,0,0,0,0,0,0,0,0,0,0,0,0,0,0,0,0,0,0,0,0,0,0,0,0,0,0,0,0,0,0,0,0,0,0,0,0,0,0,0,0,0,0,0,0,0,0,0,0,0,0,0,0,0,0,0,0,0,0,0,0,0,0,0,0,0,0,0,0,0,0,0,0,0,0,0,0,0,0,0],"sum_hessian":[1.1107398E4,3.992203E3,7.1151953E3,2.0334546E3,1.9587482E3,4.684732E3,2.4304634E3,1.5391836E3,4.9427106E2,1.645774E3,3.1297415E2,3.6518625E3,1.0328695E3,1.8801129E3,5.503505E2,5.187606E2,1.0204229E3,3.50392E2,1.4387904E2,4.8554234E1,1.5972198E3,2.750941E2,3.788008E1,2.588783E3,1.0630796E3,9.683591E2,6.45105E1,7.117667E1,1.8089363E3,4.994016E2,5.09489E1,2.0879625E2,3.099644E2,1.2603221E2,8.943907E2,3.413051E2,9.086894E0,1.8589115E1,1.2528993E2,3.6390816E1,1.216342E1,1.9433746E1,1.577786E3,1.0644325E2,1.6865082E2,2.7533924E1,1.0346157E1,1.2910472E3,1.2977356E3,8.319771E2,2.3110254E2,1.3020537E1,9.553385E2,3.7896084E1,2.6614412E1,5.9326283E1,1.1850387E1,2.6073325E2,1.548203E3,2.4309173E0,4.9697067E2,4.5154778E1,5.7941217E0,1.9206108E2,1.6735168E1,1.4514606E2,1.6481831E2,1.0476806E2,2.1264149E1,2.010354E2,6.933553E2,2.5628462E1,3.1567667E2,6.153161E0,2.9337325E0,1.6665575E1,1.923541E0,1.12157135E2,1.3132803E1,1.5685289E1,2.0705526E1,2.1802387E0,9.983181E0,8.7688265E0,1.0664919E1,1.560326E3,1.7459982E1,1.0296377E2,3.479484E0,7.401376E0,1.6124945E2,1.2359407E1,1.5174518E1,8.905591E0,1.4405661E0,1.0745917E3,2.1645558E2,9.6995026E2,3.2778537E2,2.5405154E2,5.7792554E2,1.06392975E2,1.24709564E2,6.9610243E0,6.059513E0,3.3061115E1,9.222774E2,1.9809479E1,1.8086607E1,1.1843759E0,2.5430035E1,1.6597137E1,4.2729145E1,1.0380081E1,1.4703058E0,2.200291E2,4.070415E1,5.4011847E2,1.00808453E3,1.3868689E2,3.5828378E2,3.2969795E1,1.2184981E1,1.6509535E0,4.1431684E0],"tree_param":{"num_deleted":"0","num_feature":"12","num_nodes":"125","size_leaf_vector":"1"}},{"base_weights":[-9.3005365E-3,-2.0922014E-1,1.7857033E-1,-3.8506E-1,-1.0248221E-1,1.0169828E-1,3.2511654E-1,-3.1430086E-1,-5.4942364E-1,-1.8429933E-1,-5.8644757E-5,1.5847673E-1,-1.10130906E-1,4.1734636E-1,1.5573643E-1,-4.2875308E-1,-1.5500146E-1,-3.8461018E-1,-7.5123996E-1,2.7806198E-3,-2.8404656E-1,1.9958067E-1,-6.647592E-2,7.513141E-2,3.5810778E-1,-5.10206E-1,-2.2164803E-2,3.4692335E-1,7.7756196E-1,2.593894E-1,-1.851124E-1,4.935466E-2,-4.8268548E-1,7.5555056E-1,-1.9348553E-1,-8.290115E-1,-1.9090937E-1,-8.1174946E-1,3.5785142E-1,-8.748151E-2,3.3347026E-1,-4.0742466E-1,-1.6239056E-1,2.179944E-1,-1.4425114E-1,1.7194772E-1,-1.22334614E-1,2.0520158E-1,-4.6044074E-2,2.519781E-1,6.010637E-1,-3.7208268E-1,-1.8577063E-1,-1.02205224E-1,4.2835075E-1,3.855783E-1,-5.1819246E-2,8.3752066E-1,-2.1257888E-1,-1.0292631E0,2.843815E-1,-5.987614E-2,-9.8319304E-1,9.6597545E-2,-1.713039E-2,-2.972929E-2,-6.290867E-2,-1.5492216E-2,1.3327271E-1,1.00600995E-1,-2.2219611E-2,-5.6907292E-2,-1.1891861E-1,-5.3792484E-2,8.699012E-3,-5.777059E-2,-9.8137885E-2,-6.817077E-2,1.0842904E-1,-1.379104E-2,3.019523E-2,6.4907665E-3,6.305073E-2,-2.5995225E-2,-5.6190778E-2,-1.3026123E-2,-1.1995447E-1,2.723889E-2,-3.519288E-2,5.536632E-2,3.355397E-5,-2.9626643E-2,-1.7699477E-3,7.520622E-3,3.629337E-2,-5.2279532E-2,-1.0826048E-3,6.5221235E-2,1.6403269E-2,7.1897015E-2,1.53571265E-2,-1.9188233E-2,-1.1244827E-1,-1.3414542E-2,7.704633E-2,-2.3859164E-2,7.903136E-2,2.4873743E-2,4.749389E-2,1.5047881E-2,-9.997097E-2,8.799733E-2,4.901976E-3,8.164241E-2,-1.4265637E-1,-3.2555383E-2,-1.7147604E-1,4.0099237E-2,-1.1152731E-3,-1.6281983E-2,8.202068E-2,-1.8941256E-1,-4.3017473E-2],"categories":[],"categories_nodes":[],"categories_segments":[],"categories_sizes":[],"default_left":[0,0,0,0,0,0,0,0,0,0,0,0,0,0,0,0,0,0,0,0,0,0,0,0,0,0,0,0,0,0,0,0,0,0,0,0,0,0,0,0,0,0,0,0,0,0,0,0,0,0,0,0,0,0,0,0,0,0,0,0,0,0,0,0,0,0,0,0,0,0,0,0,0,0,0,0,0,0,0,0,0,0,0,0,0,0,0,0,0,0,0,0,0,0,0,0,0,0,0,0,0,0,0,0,0,0,0,0,0,0,0,0,0,0,0,0,0,0,0,0,0,0,0],"id":10,"left_children":[1,3,5,7,9,11,13,15,17,19,21,23,25,27,29,31,33,35,37,39,41,43,45,47,49,51,53,55,57,59,61,63,65,67,69,71,73,75,77,79,81,83,85,87,-1,89,91,93,95,97,99,101,-1,103,105,107,109,111,113,115,117,119,121,-1,-1,-1,-1,-1,-1,-1,-1,-1,-1,-1,-1,-1,-1,-1,-1,-1,-1,-1,-1,-1,-1,-1,-1,-1,-1,-1,-1,-1,-1,-1,-1,-1,-1,-1,-1,-1,-1,-1,-1,-1,-1,-1,-1,-1,-1,-1,-1,-1,-1,-1,-1,-1,-1,-1,-1,-1,-1,-1,-1],"loss_changes":[4.124211E2,9.980472E1,6.373886E1,2.3192932E1,2.7751633E1,4.4694225E1,3.0355652E1,2.558194E1,1.9777237E1,3.435556E1,1.9526346E1,4.872032E1,2.7642864E1,3.1698181E1,2.435904E1,2.1117615E1,2.0810938E1,2.860395E1,1.8420074E1,1.9168951E1,1.7957405E1,1.14302435E1,1.4737576E1,3.26064E1,2.209201E1,2.5661129E1,2.330927E1,1.6295258E1,1.2364777E1,1.7299759E1,1.6037254E1,1.7121353E1,1.9768005E1,1.28802185E1,1.9736254E1,8.79126E0,2.2612831E1,9.615311E0,1.1817638E1,9.949833E0,1.0943973E1,1.3420975E1,2.0046875E1,1.1392937E1,0E0,1.3766836E1,1.6298626E1,2.0429066E1,1.7985188E1,2.1086624E1,1.368927E1,1.7365734E1,0E0,1.53965435E1,2.3732668E1,1.1654175E1,1.8213535E1,6.4427032E0,1.6802635E1,4.3925285E0,1.7883823E1,1.2841433E1,1.0156502E1,0E0,0E0,0E0,0E0,0E0,0E0,0E0,0E0,0E0,0E0,0E0,0E0,0E0,0E0,0E0,0E0,0E0,0E0,0E0,0E0,0E0,0E0,0E0,0E0,0E0,0E0,0E0,0E0,0E0,0E0,0E0,0E0,0E0,0E0,0E0,0E0,0E0,0E0,0E0,0E0,0E0,0E0,0E0,0E0,0E0,0E0,0E0,0E0,0E0,0E0,0E0,0E0,0E0,0E0,0E0,0E0,0E0,0E0,0E0,0E0],"parents":[2147483647,0,0,1,1,2,2,3,3,4,4,5,5,6,6,7,7,8,8,9,9,10,10,11,11,12,12,13,13,14,14,15,15,16,16,17,17,18,18,19,19,20,20,21,21,22,22,23,23,24,24,25,25,26,26,27,27,28,28,29,29,30,30,31,31,32,32,33,33,34,34,35,35,36,36,37,37,38,38,39,39,40,40,41,41,42,42,43,43,45,45,46,46,47,47,48,48,49,49,50,50,51,51,53,53,54,54,55,55,56,56,57,57,58,58,59,59,60,60,61,61,62,62],"right_children":[2,4,6,8,10,12,14,16,18,20,22,24,26,28,30,32,34,36,38,40,42,44,46,48,50,52,54,56,58,60,62,64,66,68,70,72,74,76,78,80,82,84,86,88,-1,90,92,94,96,98,100,102,-1,104,106,108,110,112,114,116,118,120,122,-1,-1,-1,-1,-1,-1,-1,-1,-1,-1,-1,-1,-1,-1,-1,-1,-1,-1,-1,-1,-1,-1,-1,-1,-1,-1,-1,-1,-1,-1,-1,-1,-1,-1,-1,-1,-1,-1,-1,-1,-1,-1,-1,-1,-1,-1,-1,-1,-1,-1,-1,-1,-1,-1,-1,-1,-1,-1,-1,-1],"split_conditions":[1.4E1,9E0,1.5E1,1.5E1,1.4E1,1.3E1,1.6E1,6E0,1.95E2,3E0,-4.4730735E-1,6E0,9.4E1,2.1E1,9E0,-1.435716E0,2.4E1,8.6E1,2.0494719E0,2.87E2,6E0,3.43E2,3E0,3E0,6.926877E-1,8.7809837E-1,8.6154646E-1,3.22E2,3.21E2,-1.4810166E0,7.543995E-1,2E0,-3.7471744E-1,2.03E2,4E0,3.6643142E-1,1.94E2,1.6711842E-1,6E0,3.12E2,4.6426293E-1,2.8421798E-1,1.9357245E0,3.21E2,-1.4425114E-1,-8.400496E-1,1.1E1,4E0,-1.5248874E0,-1.117025E0,2.47E2,2E1,-1.8577063E-1,3.36E2,2.2E2,3E0,2.87E2,9.0832305E-1,1.03E2,1.8420398E-1,4.8044088E-1,6.8737215E-1,1.75E2,9.6597545E-2,-1.713039E-2,-2.972929E-2,-6.290867E-2,-1.5492216E-2,1.3327271E-1,1.00600995E-1,-2.2219611E-2,-5.6907292E-2,-1.1891861E-1,-5.3792484E-2,8.699012E-3,-5.777059E-2,-9.8137885E-2,-6.817077E-2,1.0842904E-1,-1.379104E-2,3.019523E-2,6.4907665E-3,6.305073E-2,-2.5995225E-2,-5.6190778E-2,-1.3026123E-2,-1.1995447E-1,2.723889E-2,-3.519288E-2,5.536632E-2,3.355397E-5,-2.9626643E-2,-1.7699477E-3,7.520622E-3,3.629337E-2,-5.2279532E-2,-1.0826048E-3,6.5221235E-2,1.6403269E-2,7.1897015E-2,1.53571265E-2,-1.9188233E-2,-1.1244827E-1,-1.3414542E-2,7.704633E-2,-2.3859164E-2,7.903136E-2,2.4873743E-2,4.749389E-2,1.5047881E-2,-9.997097E-2,8.799733E-2,4.901976E-3,8.164241E-2,-1.4265637E-1,-3.2555383E-2,-1.7147604E-1,4.0099237E-2,-1.1152731E-3,-1.6281983E-2,8.202068E-2,-1.8941256E-1,-4.3017473E-2],"split_indices":[6,6,0,0,0,0,0,0,1,0,10,0,2,6,5,10,1,1,8,1,0,1,5,0,10,10,10,2,1,8,10,0,8,2,6,10,2,10,5,2,10,10,8,2,0,8,6,4,10,8,1,6,0,1,2,4,1,10,2,10,8,10,2,0,0,0,0,0,0,0,0,0,0,0,0,0,0,0,0,0,0,0,0,0,0,0,0,0,0,0,0,0,0,0,0,0,0,0,0,0,0,0,0,0,0,0,0,0,0,0,0,0,0,0,0,0,0,0,0,0,0,0,0],"split_type":[0,0,0,0,0,0,0,0,0,0,0,0,0,0,0,0,0,0,0,0,0,0,0,0,0,0,0,0,0,0,0,0,0,0,0,0,0,0,0,0,0,0,0,0,0,0,0,0,0,0,0,0,0,0,0,0,0,0,0,0,0,0,0,0,0,0,0,0,0,0,0,0,0,0,0,0,0,0,0,0,0,0,0,0,0,0,0,0,0,0,0,0,0,0,0,0,0,0,0,0,0,0,0,0,0,0,0,0,0,0,0,0,0,0,0,0,0,0,0,0,0,0,0],"sum_hessian":[1.0978605E4,5.318694E3,5.6599116E3,2.0080419E3,3.3106519E3,3.7136035E3,1.9463079E3,1.4057665E3,6.022753E2,1.8400219E3,1.47063E3,2.9288184E3,7.847851E2,1.259195E3,6.871129E2,8.170484E2,5.8871814E2,3.331301E2,2.6914523E2,6.402254E2,1.1997964E3,3.6662152E2,1.1040084E3,2.0671616E3,8.616569E2,1.40587E2,6.441981E2,1.054919E3,2.0427603E2,5.27069E2,1.6004398E2,8.283201E1,7.342164E2,2.3117348E1,5.6560077E2,1.0012858E2,2.3300153E2,2.5547519E2,1.3670047E1,5.035235E2,1.3670189E2,5.9451587E2,6.052806E2,3.634136E2,3.2079208E0,2.0916098E2,8.948475E2,9.9665515E2,1.0705063E3,6.011122E2,2.6054474E2,1.2867365E2,1.1913356E1,5.4767E2,9.652813E1,9.6172076E2,9.319817E1,1.927576E2,1.1518435E1,9.262997E0,5.1780597E2,1.3926524E2,2.077873E1,1.5415978E1,6.741602E1,3.2530414E2,4.0891226E2,9.252884E0,1.3864465E1,1.2425792E1,5.53175E2,5.9655262E1,4.0473316E1,1.0319961E2,1.2980191E2,1.0920584E2,1.4626935E2,5.648469E0,8.021578E0,4.4636795E2,5.7155567E1,7.243192E1,6.426996E1,3.0553207E2,2.889838E2,5.881852E2,1.7095417E1,3.322273E2,3.1186317E1,6.417992E1,1.4498106E2,3.354341E2,5.594134E2,5.471756E2,4.4947955E2,7.268707E1,9.9781934E2,1.0713432E2,4.9397784E2,2.0573145E2,5.481329E1,1.04823395E2,2.3850252E1,5.2914905E2,1.8520895E1,3.4077938E1,6.2450195E1,3.8142126E2,5.802995E2,7.7499535E1,1.5698643E1,1.8279971E2,9.957888E0,6.4114327E0,5.107002E0,5.298571E0,3.964426E0,3.710439E2,1.4676205E2,1.2541087E2,1.385437E1,6.933232E0,1.3845498E1],"tree_param":{"num_deleted":"0","num_feature":"12","num_nodes":"123","size_leaf_vector":"1"}},{"base_weights":[6.1248196E-3,-1.7289457E-1,1.731502E-1,-3.1096375E-1,-8.8518396E-2,8.442139E-2,3.3946136E-1,-2.4516451E-1,-4.65074E-1,3.0046394E-1,-1.1013807E-1,1.3209744E-1,-8.9752614E-2,2.9776976E-1,5.4373145E-1,-2.1575478E-1,-6.9482636E-1,-4.8648784E-1,9.727054E-1,6.3394564E-1,-4.8237376E-2,-1.8784007E-1,-1.08121745E-2,4.2382706E-2,3.4525985E-1,-1.0674819E-1,1.4691756E0,1.6209076E-1,3.607009E-1,6.602354E-1,-4.892986E-2,-3.6374244E-1,-1.435625E-1,-1.0853342E0,-2.3688537E-1,-1.3724123E-1,-5.7713884E-1,-8.635348E-2,1.4747979E-1,-6.546314E-1,7.8754866E-1,5.6211296E-2,-1.5245704E-1,2.0191938E-2,-2.972963E-1,-4.5857093E-1,1.8047275E-2,-5.1802266E-2,1.9636913E-1,4.6370137E-1,1.5668093E-1,-4.6349213E-2,-4.8547202E-1,1.6236983E-1,5.2581836E-2,-7.704251E-1,2.0470418E-1,3.2056117E-1,7.1524173E-1,-1.3553597E-1,6.7563415E-1,4.2475548E-2,-1.5494E-1,-5.5501368E-2,-1.5251465E-2,1.3995089E-2,-2.0775761E-2,4.093605E-3,-1.3592243E-1,1.0625863E-1,-5.2689176E-2,-7.790666E-2,1.8383745E-2,-5.2361585E-2,-1.4396659E-1,-1.00126006E-1,8.640202E-2,-1.4722656E-1,6.162131E-2,-6.1513852E-2,8.669375E-2,3.3895213E-2,-3.996733E-2,4.0197084E-3,-1.00600176E-1,-4.513235E-2,-1.1949449E-2,-7.393121E-2,2.0455752E-2,2.8039375E-2,-6.7079286E-3,-1.0374812E-2,2.4308953E-2,3.1257365E-2,8.5033495E-3,2.8459374E-2,6.327323E-2,3.923541E-2,-1.0319578E-2,-1.0238696E-2,3.339282E-2,-6.9102064E-2,4.9716786E-2,3.8527723E-2,-1.2830162E-1,8.315478E-2,1.646177E-2,-4.9011245E-2,3.540863E-2,-1.4143752E-1,7.6577626E-2,2.9215312E-2,7.543358E-2,-4.1630656E-2,2.7501902E-2],"categories":[],"categories_nodes":[],"categories_segments":[],"categories_sizes":[],"default_left":[0,0,0,0,0,0,0,0,0,0,0,0,0,0,0,0,0,0,0,0,0,0,0,0,0,0,0,0,0,0,0,0,0,0,0,0,0,0,0,0,0,0,0,0,0,0,0,0,0,0,0,0,0,0,0,0,0,0,0,0,0,0,0,0,0,0,0,0,0,0,0,0,0,0,0,0,0,0,0,0,0,0,0,0,0,0,0,0,0,0,0,0,0,0,0,0,0,0,0,0,0,0,0,0,0,0,0,0,0,0,0,0,0,0,0],"id":11,"left_children":[1,3,5,7,9,11,13,15,17,19,21,23,25,27,29,31,33,35,37,39,41,43,45,47,49,51,53,55,57,59,61,63,65,67,69,71,73,75,-1,77,79,81,-1,83,85,87,89,91,93,95,97,99,101,-1,-1,103,105,107,109,-1,111,113,-1,-1,-1,-1,-1,-1,-1,-1,-1,-1,-1,-1,-1,-1,-1,-1,-1,-1,-1,-1,-1,-1,-1,-1,-1,-1,-1,-1,-1,-1,-1,-1,-1,-1,-1,-1,-1,-1,-1,-1,-1,-1,-1,-1,-1,-1,-1,-1,-1,-1,-1,-1,-1],"loss_changes":[3.2741278E2,6.154419E1,8.356351E1,2.021083E1,2.7632654E1,3.069732E1,1.6619034E1,1.8453514E1,1.8903442E1,2.0156258E1,2.3998947E1,5.547449E1,2.1212906E1,1.3933029E1,2.3010422E1,1.40697365E1,1.5105873E1,1.8615479E1,4.9758425E0,1.8039612E1,1.3275173E1,3.973524E1,1.766029E1,2.964374E1,1.9120987E1,1.798167E1,4.0545273E-1,2.086245E1,1.5689941E1,9.549927E0,7.6917453E0,1.7399242E1,1.622883E1,1.4272892E1,1.5942908E1,2.5489866E1,2.0874252E1,4.2363534E0,0E0,1.1273081E1,9.393013E0,1.0556438E1,0E0,1.2408428E1,3.1257301E1,1.5556957E1,2.8700277E1,1.9458008E1,1.0008572E1,1.5784073E1,2.0436647E1,1.4523427E1,2.2188438E1,0E0,0E0,1.41073265E1,1.2403376E1,2.7532547E1,1.323901E1,0E0,8.131905E0,5.8097596E0,0E0,0E0,0E0,0E0,0E0,0E0,0E0,0E0,0E0,0E0,0E0,0E0,0E0,0E0,0E0,0E0,0E0,0E0,0E0,0E0,0E0,0E0,0E0,0E0,0E0,0E0,0E0,0E0,0E0,0E0,0E0,0E0,0E0,0E0,0E0,0E0,0E0,0E0,0E0,0E0,0E0,0E0,0E0,0E0,0E0,0E0,0E0,0E0,0E0,0E0,0E0,0E0,0E0],"parents":[2147483647,0,0,1,1,2,2,3,3,4,4,5,5,6,6,7,7,8,8,9,9,10,10,11,11,12,12,13,13,14,14,15,15,16,16,17,17,18,18,19,19,20,20,21,21,22,22,23,23,24,24,25,25,26,26,27,27,28,28,29,29,30,30,31,31,32,32,33,33,34,34,35,35,36,36,37,37,39,39,40,40,41,41,43,43,44,44,45,45,46,46,47,47,48,48,49,49,50,50,51,51,52,52,55,55,56,56,57,57,58,58,60,60,61,61],"right_children":[2,4,6,8,10,12,14,16,18,20,22,24,26,28,30,32,34,36,38,40,42,44,46,48,50,52,54,56,58,60,62,64,66,68,70,72,74,76,-1,78,80,82,-1,84,86,88,90,92,94,96,98,100,102,-1,-1,104,106,108,110,-1,112,114,-1,-1,-1,-1,-1,-1,-1,-1,-1,-1,-1,-1,-1,-1,-1,-1,-1,-1,-1,-1,-1,-1,-1,-1,-1,-1,-1,-1,-1,-1,-1,-1,-1,-1,-1,-1,-1,-1,-1,-1,-1,-1,-1,-1,-1,-1,-1,-1,-1,-1,-1,-1,-1],"split_conditions":[1.4E1,9E0,1.5E1,1.5E1,-1.7642579E0,1.3E1,2.1E1,3.19E2,2.7225683E0,3E0,1.4E1,6E0,1.1603942E0,-5.720574E-1,1.2741636E0,-5.6283766E-1,3.3093527E-1,-9.635701E-1,1.6E1,1E1,1.4237952E0,3E0,4.4E1,-7.411675E-2,1.1E1,3.07E2,2.48E2,-1.3711443E0,1E0,-1.5271893E0,3.1E2,5E0,-8.2810885E-1,-6.884771E-1,1E0,7E0,1.6746823E0,3.21E2,1.4747979E-1,2.22E2,2.4E1,-5.2633554E-1,-1.5245704E-1,2.8958268E0,-2.7785534E-1,6.834453E-1,9.7E1,1.1391929E0,3E0,1E1,-6.989721E-1,2.6E2,3.43E2,1.6236983E-1,5.2581836E-2,-9.86102E-1,-1.2741106E0,-1.4792429E0,-1.4068421E0,-1.3553597E-1,-8.581256E-1,-1.6857857E-1,-1.5494E-1,-5.5501368E-2,-1.5251465E-2,1.3995089E-2,-2.0775761E-2,4.093605E-3,-1.3592243E-1,1.0625863E-1,-5.2689176E-2,-7.790666E-2,1.8383745E-2,-5.2361585E-2,-1.4396659E-1,-1.00126006E-1,8.640202E-2,-1.4722656E-1,6.162131E-2,-6.1513852E-2,8.669375E-2,3.3895213E-2,-3.996733E-2,4.0197084E-3,-1.00600176E-1,-4.513235E-2,-1.1949449E-2,-7.393121E-2,2.0455752E-2,2.8039375E-2,-6.7079286E-3,-1.0374812E-2,2.4308953E-2,3.1257365E-2,8.5033495E-3,2.8459374E-2,6.327323E-2,3.923541E-2,-1.0319578E-2,-1.0238696E-2,3.339282E-2,-6.9102064E-2,4.9716786E-2,3.8527723E-2,-1.2830162E-1,8.315478E-2,1.646177E-2,-4.9011245E-2,3.540863E-2,-1.4143752E-1,7.6577626E-2,2.9215312E-2,7.543358E-2,-4.1630656E-2,2.7501902E-2],"split_indices":[6,6,0,0,7,0,6,1,8,4,0,0,3,9,3,9,7,8,0,6,8,0,1,9,0,1,1,8,11,8,1,0,7,9,4,6,9,1,0,1,1,9,0,9,3,8,1,8,0,0,3,1,1,0,0,7,8,7,8,0,7,8,0,0,0,0,0,0,0,0,0,0,0,0,0,0,0,0,0,0,0,0,0,0,0,0,0,0,0,0,0,0,0,0,0,0,0,0,0,0,0,0,0,0,0,0,0,0,0,0,0,0,0,0,0],"split_type":[0,0,0,0,0,0,0,0,0,0,0,0,0,0,0,0,0,0,0,0,0,0,0,0,0,0,0,0,0,0,0,0,0,0,0,0,0,0,0,0,0,0,0,0,0,0,0,0,0,0,0,0,0,0,0,0,0,0,0,0,0,0,0,0,0,0,0,0,0,0,0,0,0,0,0,0,0,0,0,0,0,0,0,0,0,0,0,0,0,0,0,0,0,0,0,0,0,0,0,0,0,0,0,0,0,0,0,0,0,0,0,0,0,0,0],"sum_hessian":[1.0947974E4,5.2842397E3,5.6637334E3,2.0033563E3,3.2808835E3,3.6942947E3,1.9694387E3,1.4057467E3,5.976097E2,1.7207124E2,3.1088125E3,2.9005725E3,7.937222E2,1.6376511E3,3.317876E2,1.3208383E3,8.490846E1,5.894916E2,8.118063E0,8.753696E1,8.453428E1,1.7437764E3,1.365036E3,2.0422424E3,8.583301E2,7.8608374E2,7.638432E0,5.2003534E2,1.1176158E3,2.7718515E2,5.4602436E1,4.3175037E2,8.890878E2,4.5088955E1,3.9819508E1,1.21996315E2,4.6749527E2,2.877208E0,5.2408547E0,8.975933E0,7.856103E1,7.984713E1,4.687156E0,6.014598E2,1.1423167E3,8.175197E1,1.283284E3,1.2675908E3,7.746516E2,5.263097E2,3.320204E2,6.789302E2,1.0715359E2,5.943664E0,1.6947678E0,2.1979317E1,4.9805603E2,1.0056628E3,1.1195301E2,1.4418226E0,2.7574332E2,5.2383064E1,2.2193716E0,2.2572452E2,2.0602585E2,1.6392851E2,7.251593E2,8.986379E0,3.6102577E1,6.7791643E0,3.3040344E1,4.0203827E1,8.179249E1,4.4169363E2,2.5801653E1,1.4386774E0,1.4385304E0,5.3654337E0,3.6104996E0,3.8467085E0,7.471432E1,4.9440495E1,3.040663E1,5.909013E2,1.0558504E1,6.112558E2,5.310608E2,5.7355244E1,2.4396723E1,3.1382663E2,9.6945746E2,1.0782949E3,1.892959E2,3.7815344E2,3.9649817E2,2.5684094E2,2.6946878E2,1.7385109E2,1.581693E2,5.9236926E2,8.656089E1,8.8862175E1,1.8291414E1,6.829563E0,1.5149753E1,2.8749426E1,4.693066E2,3.939638E1,9.662664E2,1.9694293E0,1.0998358E2,4.7756706E1,2.2798662E2,1.7354452E1,3.502861E1],"tree_param":{"num_deleted":"0","num_feature":"12","num_nodes":"115","size_leaf_vector":"1"}},{"base_weights":[1.1501798E-2,-1.2527156E-1,1.7682245E-1,-2.8580824E-1,-4.511621E-2,2.2307174E-1,4.5293543E-2,-2.6324E-1,-7.8419703E-1,2.892516E-1,-6.3526005E-2,1.15525484E-1,3.634368E-1,1.616891E-1,-2.0094992E-1,-2.763738E-1,5.032841E-1,-1.1092608E0,-2.5734854E-1,-9.6418016E-2,4.3069366E-1,-5.6676555E-2,-9.7607356E-1,-1.3452261E-2,2.039764E-1,1.7441362E-1,4.2784405E-1,1.8450123E-1,-1.2197127E0,-1.2793577E-1,-1.2816299E0,-2.6778194E-1,-1.2381798E0,-8.5417885E-1,9.5973027E-1,-1.4661293E-1,-3.915815E-1,-1.1354752E0,4.9809077E-1,2.4097471E-1,-1.1394194E0,7.436493E-1,1.4610805E-1,1.0038414E-1,-8.530731E-2,-1.1123399E0,1.15567185E-1,3.3057989E-3,-1.5486529E0,3.3001125E-1,3.836337E-2,6.2045044E-1,5.8720827E-2,4.7290006E-1,6.833308E-2,-5.8596176E-1,2.1039253E-1,-1.828083E-1,1.6153266E-1,-1.8743223E-1,5.079833E-1,-1.5757225E0,4.4164076E-1,3.5693053E-2,-2.8017094E-2,-1.4999434E-1,-6.901675E-3,-1.3478656E-1,5.3142704E-2,3.0607333E-2,1.2993129E-1,1.3350208E-2,-1.2489349E-1,2.7334807E-2,-1.4078335E-1,1.3495658E-1,-4.099903E-2,-1.3500844E-2,1.18072025E-1,-1.3658637E-1,-2.0048698E-2,8.652291E-2,-2.333183E-2,-9.349381E-2,3.014618E-2,2.2111353E-2,-9.219104E-3,-2.4700372E-2,-1.4357505E-3,-1.6970803E-1,-6.371611E-2,1.8281419E-3,-1.3673595E-1,-2.031778E-1,6.410613E-2,-1.0388583E-1,3.491534E-2,-1.9930357E-2,2.0197565E-2,7.341858E-2,-3.7774757E-2,5.2964605E-2,-5.6968494E-3,4.909747E-2,-2.8115291E-2,-7.4280624E-4,9.6189186E-2,-1.8068458E-1,-2.0431671E-2,1.6900145E-2,5.935336E-2,-1.20607376E-1,9.9440746E-2,2.6829531E-2,-2.7944092E-2,9.3739524E-2,-4.0153157E-2,-1.9299065E-1,2.9239938E-2,1.02759495E-1,-6.3109524E-3],"categories":[],"categories_nodes":[],"categories_segments":[],"categories_sizes":[],"default_left":[0,0,0,0,0,0,0,0,0,0,0,0,0,0,0,0,0,0,0,0,0,0,0,0,0,0,0,0,0,0,0,0,0,0,0,0,0,0,0,0,0,0,0,0,0,0,0,0,0,0,0,0,0,0,0,0,0,0,0,0,0,0,0,0,0,0,0,0,0,0,0,0,0,0,0,0,0,0,0,0,0,0,0,0,0,0,0,0,0,0,0,0,0,0,0,0,0,0,0,0,0,0,0,0,0,0,0,0,0,0,0,0,0,0,0,0,0,0,0,0,0],"id":12,"left_children":[1,3,5,7,9,11,13,15,17,19,21,23,25,27,29,31,33,35,37,39,41,43,45,47,49,51,53,55,57,59,61,63,65,67,69,-1,71,73,75,77,79,81,83,85,87,89,-1,91,93,95,97,99,101,103,105,107,109,-1,111,113,115,117,119,-1,-1,-1,-1,-1,-1,-1,-1,-1,-1,-1,-1,-1,-1,-1,-1,-1,-1,-1,-1,-1,-1,-1,-1,-1,-1,-1,-1,-1,-1,-1,-1,-1,-1,-1,-1,-1,-1,-1,-1,-1,-1,-1,-1,-1,-1,-1,-1,-1,-1,-1,-1,-1,-1,-1,-1,-1,-1],"loss_changes":[2.4892026E2,7.750945E1,3.0308899E1,2.2357544E1,2.4760353E1,5.5619568E1,3.723192E1,1.9475372E1,1.4511333E1,1.1493374E1,2.3761797E1,2.3836134E1,1.9393478E1,2.8014746E1,3.2741318E1,1.5278381E1,2.1086937E1,1.3033455E1,2.3299074E1,2.0385504E1,1.3587767E1,1.702045E1,9.5138E0,2.1893936E1,2.5855972E1,2.1022045E1,1.9276001E1,1.7446362E1,1.2444122E1,1.491678E1,1.4015373E1,1.4600296E1,4.9305916E0,6.708639E0,5.1403847E0,0E0,8.724483E0,6.582754E0,1.5334591E1,1.5708158E1,2.7331657E0,8.872406E0,1.4017569E1,1.3592525E1,3.6712234E1,6.4579697E0,0E0,1.7321136E1,1.10238E1,1.8799934E1,2.0910212E1,9.80751E0,1.7744167E1,1.4572571E1,9.073204E0,1.2909245E1,1.3235237E1,0E0,7.2813115E0,1.5126392E1,1.35714245E1,1.5563465E1,1.4290187E0,0E0,0E0,0E0,0E0,0E0,0E0,0E0,0E0,0E0,0E0,0E0,0E0,0E0,0E0,0E0,0E0,0E0,0E0,0E0,0E0,0E0,0E0,0E0,0E0,0E0,0E0,0E0,0E0,0E0,0E0,0E0,0E0,0E0,0E0,0E0,0E0,0E0,0E0,0E0,0E0,0E0,0E0,0E0,0E0,0E0,0E0,0E0,0E0,0E0,0E0,0E0,0E0,0E0,0E0,0E0,0E0,0E0,0E0],"parents":[2147483647,0,0,1,1,2,2,3,3,4,4,5,5,6,6,7,7,8,8,9,9,10,10,11,11,12,12,13,13,14,14,15,15,16,16,17,17,18,18,19,19,20,20,21,21,22,22,23,23,24,24,25,25,26,26,27,27,28,28,29,29,30,30,31,31,32,32,33,33,34,34,36,36,37,37,38,38,39,39,40,40,41,41,42,42,43,43,44,44,45,45,47,47,48,48,49,49,50,50,51,51,52,52,53,53,54,54,55,55,56,56,58,58,59,59,60,60,61,61,62,62],"right_children":[2,4,6,8,10,12,14,16,18,20,22,24,26,28,30,32,34,36,38,40,42,44,46,48,50,52,54,56,58,60,62,64,66,68,70,-1,72,74,76,78,80,82,84,86,88,90,-1,92,94,96,98,100,102,104,106,108,110,-1,112,114,116,118,120,-1,-1,-1,-1,-1,-1,-1,-1,-1,-1,-1,-1,-1,-1,-1,-1,-1,-1,-1,-1,-1,-1,-1,-1,-1,-1,-1,-1,-1,-1,-1,-1,-1,-1,-1,-1,-1,-1,-1,-1,-1,-1,-1,-1,-1,-1,-1,-1,-1,-1,-1,-1,-1,-1,-1,-1,-1,-1],"split_conditions":[1.5E1,9E0,9E0,3.23E2,-1.7642579E0,6E0,-2.9787847E-1,2.0207107E0,4.5682687E-1,1E2,2.7225683E0,3E0,1.7E1,3.36E2,3.1E2,1.8137112E0,1.08E2,3.43E2,2.598163E-1,-4.5230466E-1,2.2E2,1E0,3.52E2,2.5278845E0,5E0,-2.8748122E-1,3.07E2,-4.339387E-1,2.39E2,1.5287906E0,3.45E2,4E0,-4.766831E-2,5E0,1.1E1,-1.4661293E-1,7E0,-7.3020196E-1,8E0,-1.8910052E0,3E2,1.3190655E0,7.4E1,3.401723E-1,3E0,1.88E2,1.15567185E-1,2.3E1,2.98E2,-8.2791436E-1,6E0,2.9E2,1E0,3.7970223E0,1E0,-6.8020666E-1,1.4719629E0,-1.828083E-1,3E0,1E0,1.9883435E0,2.2E1,1.6E1,3.5693053E-2,-2.8017094E-2,-1.4999434E-1,-6.901675E-3,-1.3478656E-1,5.3142704E-2,3.0607333E-2,1.2993129E-1,1.3350208E-2,-1.2489349E-1,2.7334807E-2,-1.4078335E-1,1.3495658E-1,-4.099903E-2,-1.3500844E-2,1.18072025E-1,-1.3658637E-1,-2.0048698E-2,8.652291E-2,-2.333183E-2,-9.349381E-2,3.014618E-2,2.2111353E-2,-9.219104E-3,-2.4700372E-2,-1.4357505E-3,-1.6970803E-1,-6.371611E-2,1.8281419E-3,-1.3673595E-1,-2.031778E-1,6.410613E-2,-1.0388583E-1,3.491534E-2,-1.9930357E-2,2.0197565E-2,7.341858E-2,-3.7774757E-2,5.2964605E-2,-5.6968494E-3,4.909747E-2,-2.8115291E-2,-7.4280624E-4,9.6189186E-2,-1.8068458E-1,-2.0431671E-2,1.6900145E-2,5.935336E-2,-1.20607376E-1,9.9440746E-2,2.6829531E-2,-2.7944092E-2,9.3739524E-2,-4.0153157E-2,-1.9299065E-1,2.9239938E-2,1.02759495E-1,-6.3109524E-3],"split_indices":[6,6,5,1,7,5,9,7,7,1,8,4,6,1,1,7,2,1,8,9,1,4,2,9,4,7,1,7,2,8,1,6,9,4,5,0,6,9,5,7,2,8,2,7,4,1,0,6,1,9,4,2,4,9,11,8,8,0,4,4,8,6,6,0,0,0,0,0,0,0,0,0,0,0,0,0,0,0,0,0,0,0,0,0,0,0,0,0,0,0,0,0,0,0,0,0,0,0,0,0,0,0,0,0,0,0,0,0,0,0,0,0,0,0,0,0,0,0,0,0,0],"split_type":[0,0,0,0,0,0,0,0,0,0,0,0,0,0,0,0,0,0,0,0,0,0,0,0,0,0,0,0,0,0,0,0,0,0,0,0,0,0,0,0,0,0,0,0,0,0,0,0,0,0,0,0,0,0,0,0,0,0,0,0,0,0,0,0,0,0,0,0,0,0,0,0,0,0,0,0,0,0,0,0,0,0,0,0,0,0,0,0,0,0,0,0,0,0,0,0,0,0,0,0,0,0,0,0,0,0,0,0,0,0,0,0,0,0,0,0,0,0,0,0,0],"sum_hessian":[1.1006607E4,6.023488E3,4.98312E3,2.00509E3,4.018398E3,3.6862383E3,1.2968816E3,1.9196901E3,8.5399895E1,2.0893346E2,3.8094644E3,2.0881458E3,1.5980927E3,8.808571E2,4.1602448E2,1.8879805E3,3.1709602E1,5.2130238E1,3.3269657E1,5.614939E1,1.5278407E2,3.7821382E3,2.7326078E1,8.498115E2,1.2383341E3,4.0708444E2,1.1910082E3,8.6739954E2,1.3457581E1,3.90743E2,2.5281446E1,1.8725315E3,1.54489765E1,7.760033E0,2.394957E1,3.412072E1,1.800952E1,1.5152844E1,1.8116812E1,4.30065E1,1.3142891E1,7.199684E1,8.0787224E1,5.827609E2,3.1993774E3,2.6133749E1,1.1923295E0,8.416223E2,8.1891985E0,7.026276E2,5.3570654E2,8.294379E1,3.2414066E2,1.058087E3,1.3292108E2,2.7497849E1,8.399017E2,9.118034E0,4.339546E0,3.5795782E2,3.27852E1,2.1669039E1,3.6124065E0,3.58722E1,1.8366593E3,1.23916855E1,3.0572917E0,5.7415686E0,2.018464E0,8.838263E0,1.5111307E1,1.1692666E1,6.316853E0,2.454235E0,1.2698609E1,9.098912E0,9.017899E0,3.1328575E1,1.1677927E1,1.0222752E1,2.9201388E0,6.413043E1,7.866408E0,9.520393E0,7.126683E1,3.5810764E2,2.246533E2,9.7495306E2,2.2244243E3,1.0563353E1,1.5570396E1,8.335023E2,8.12002E0,6.7680616E0,1.4211369E0,8.955308E0,6.936723E2,2.1833295E2,3.173736E2,7.469722E1,8.246564E0,6.3219803E1,2.6092087E2,1.0336592E3,2.4427921E1,1.23446266E2,9.474811E0,5.659315E0,2.1838533E1,7.593134E2,8.058826E1,1.472905E0,2.8666413E0,5.9807873E1,2.9814996E2,2.224972E1,1.0535479E1,1.8187696E1,3.4813437E0,1.1923656E0,2.4200408E0],"tree_param":{"num_deleted":"0","num_feature":"12","num_nodes":"121","size_leaf_vector":"1"}},{"base_weights":[8.721841E-3,-1.3414875E-1,1.4229149E-1,-2.6703396E-1,-5.5040557E-2,6.3667215E-2,2.9054752E-1,-4.4038698E-1,-1.780846E-1,-8.4140256E-2,2.622861E-1,1.04305595E-1,-1.698403E-1,3.6543128E-1,1.529397E-1,-3.1061095E-1,-7.635018E-1,-1.5416251E-1,-7.170456E-1,-2.3921423E-1,-2.0251231E-2,3.107805E-1,-7.0119894E-1,2.1463469E-2,2.3895939E-1,-2.7153775E-1,3.464825E-1,2.7760237E-1,6.01796E-1,2.0752741E-1,-2.1141157E-1,-1.5794285E-1,-5.2803E-1,6.866705E-1,-7.9705334E-1,8.010885E-1,-1.6974616E-1,-9.095817E-1,1.0985916E0,1.1158091E0,-2.6985538E-1,5.796693E-2,-1.8465161E-1,1.2430639E-2,4.3591183E-1,-1.5770227E-1,2.788034E-1,-4.4777662E-1,6.701984E-2,3.0009833E-1,-4.551617E-2,3.98959E-1,-3.6319777E-1,-1.7073894E-2,6.7959744E-1,-1.8299499E-1,2.8732312E-1,3.6991253E-1,7.0876336E-1,3.0409878E-1,1.1011242E-2,-1.1144078E0,-1.9346742E-2,-8.0772266E-2,-5.075523E-3,-3.4156375E-2,-1.18457414E-1,1.3547073E-1,-8.121151E-2,-1.20884575E-1,-6.266316E-2,-1.0174947E-1,1.03758715E-1,-5.136144E-2,-1.3075093E-2,-4.260632E-2,-1.4294964E-1,-7.643524E-2,1.689726E-1,5.0116193E-2,1.499385E-1,-2.1678483E-2,-6.978536E-2,7.742951E-2,3.7504386E-3,-7.841647E-2,-1.3197704E-2,-1.599723E-1,1.5724717E-2,4.869161E-2,-6.3025646E-2,9.768042E-2,-1.2462511E-1,-8.551999E-2,-7.52607E-3,-2.6709023E-3,2.2823393E-2,1.3930376E-2,4.1499153E-2,1.741025E-2,-5.818521E-2,-4.82549E-2,7.0402525E-2,-6.153078E-2,-2.2929177E-2,-7.904906E-2,7.297926E-2,1.13550834E-1,-2.2498374E-3,1.6552983E-2,3.9146315E-2,5.5700984E-2,-4.195592E-2,5.0663758E-2,8.860073E-2,-1.7258954E-1,3.2442424E-2,-1.5100138E-2,5.6433976E-2,6.4583264E-2,-1.9235422E-1,3.9386444E-2,-5.6751646E-2],"categories":[],"categories_nodes":[],"categories_segments":[],"categories_sizes":[],"default_left":[0,0,0,0,0,0,0,0,0,0,0,0,0,0,0,0,0,0,0,0,0,0,0,0,0,0,0,0,0,0,0,0,0,0,0,0,0,0,0,0,0,0,0,0,0,0,0,0,0,0,0,0,0,0,0,0,0,0,0,0,0,0,0,0,0,0,0,0,0,0,0,0,0,0,0,0,0,0,0,0,0,0,0,0,0,0,0,0,0,0,0,0,0,0,0,0,0,0,0,0,0,0,0,0,0,0,0,0,0,0,0,0,0,0,0,0,0,0,0,0,0,0,0],"id":13,"left_children":[1,3,5,7,9,11,13,15,17,19,21,23,25,27,29,31,33,35,37,39,41,43,45,47,49,51,53,55,57,59,61,63,65,67,69,71,73,75,77,79,81,83,85,87,89,-1,91,93,95,97,99,101,103,105,107,-1,109,111,113,115,117,119,121,-1,-1,-1,-1,-1,-1,-1,-1,-1,-1,-1,-1,-1,-1,-1,-1,-1,-1,-1,-1,-1,-1,-1,-1,-1,-1,-1,-1,-1,-1,-1,-1,-1,-1,-1,-1,-1,-1,-1,-1,-1,-1,-1,-1,-1,-1,-1,-1,-1,-1,-1,-1,-1,-1,-1,-1,-1,-1,-1,-1],"loss_changes":[2.0926761E2,5.5685738E1,6.60447E1,3.0405914E1,3.0703423E1,